tree
version=v3
num_class=1
num_tree_per_iteration=1
label_index=0
max_feature_idx=17
objective=binary sigmoid:1
feature_names=Src_Port Protocol Flow_Duration Tot_Fwd_Pkts Tot_Bwd_Pkts Bwd_Pkt_Len_Max Flow_Byts/s Flow_Pkts/s Flow_IAT_Mean Fwd_PSH_Flags Bwd_PSH_Flags Bwd_Pkts/s FIN_Flag_Cnt SYN_Flag_Cnt URG_Flag_Cnt Down/Up_Ratio Active_Mean Idle_Std
feature_infos=[0:65535] [0:17] [0:119999992] [0:156741] [0:147505] [0:11680] [0:inf] [0.016846399357154877:inf] [0:118719731] [0:1] [0:1] [0:2000000] [0:1] [0:1] [0:1] [0:248] [0:91034913] [0:70897773.623209238]
tree_sizes=554 548 548 551 554 550 546 549 550 548 546 546 558 553 548 546 554 548 548 549 544 545 556 549 558 551 551 549 560 551 550 548 548 552 546 553 552 542 551 555 552 551 555 556 551 555 551 546 551 550 551 550 547 550 549 549 551 553 551 556 550 549 545 551 555 550 550 548 556 554 552 554 557 551 552 558 550 550 546 550 549 544 556 550 551 558 559 554 550 550 550 553 553 550 548 551 550 555 553 549 562 549 551 559 558 555 554 553 544 556 551 550 550 554 560 551 560 553 556 552 552 554 557 550 558 546 555 548 548 550 555 555 554 553 556 560 553 544 550 555 551 547 546 560 552 555 559 552 548 546 558 552 556 555 550 555 553 554 546 553 558 545 552 553 549 551 555 549 552 550 553 554 554 552 558 557 551 551 552 548 566 551 551 549 554 558 556 550 559 553 554 559 550 551 560 555 561 558 550 555

Tree=0
num_leaves=4
num_cat=0
split_feature=1 3 3
split_gain=32142.4 42276.6 167.448
threshold=11.500000000000002 4.5000000000000009 1286.0000000000002
decision_type=2 2 2
left_child=1 -1 -2
right_child=2 -3 -4
leaf_value=0.39314229633884573 -0.79814114859459018 -0.77839358906544021 0.80048328202563268
leaf_weight=25705.245403543115 6686.7488043159246 6097.4989096820354 10.499998122453688
leaf_count=102821 26747 24390 42
internal_value=0.000805195 0.168525 -0.795635
internal_weight=0 31802.7 6697.25
internal_count=154000 127211 26789
shrinkage=1


Tree=1
num_leaves=4
num_cat=0
split_feature=2 3 3
split_gain=21979.1 21044.3 4339.12
threshold=1053.5000000000002 4.5000000000000009 1.5000000000000002
decision_type=2 2 2
left_child=2 -2 -1
right_child=1 -3 -4
leaf_value=-0.36053573782755355 0.33074560906829092 -0.55557900159027296 -0.97184491091661718
leaf_weight=4846.4387806653976 22581.83067792654 5290.3079801499844 3012.6536848843098
leaf_count=21510 95430 24533 12527
internal_value=0 0.162516 -0.594871
internal_weight=0 27872.1 7859.09
internal_count=154000 119963 34037
shrinkage=0.4


Tree=2
num_leaves=4
num_cat=0
split_feature=1 11 3
split_gain=14953.7 16884.6 132.026
threshold=11.500000000000002 0.80479270324945806 10.500000000000002
decision_type=2 2 2
left_child=1 -1 -2
right_child=2 -3 -4
leaf_value=-0.47773654380380237 -0.60006802932094994 0.28668112411941798 0.33931712422847871
leaf_weight=5919.0484291762114 5627.9380161389709 21118.854963615537 24.040484748780727
leaf_count=28652 26659 98559 130
internal_value=0 0.119337 -0.596072
internal_weight=0 27037.9 5651.98
internal_count=154000 127211 26789
shrinkage=0.4


Tree=3
num_leaves=4
num_cat=0
split_feature=0 6 4
split_gain=10196.1 14288.9 7329.97
threshold=84.000000000000014 1.0000000180025095e-35 2.5000000000000004
decision_type=2 8 2
left_child=2 -2 -1
right_child=1 -3 -4
leaf_value=-0.83244313698206729 0.19044917548097201 -0.44576660533118639 0.55236654768650562
leaf_weight=677.80156376957893 10962.271989949048 11651.490709878504 6258.0394812375307
leaf_count=3140 52681 66479 31700
internal_value=0 -0.137354 0.417037
internal_weight=0 22613.8 6935.84
internal_count=154000 119160 34840
shrinkage=0.4


Tree=4
num_leaves=4
num_cat=0
split_feature=7 1 13
split_gain=6993.01 6460.37 1423.43
threshold=6549.1971029530105 11.500000000000002 1.0000000180025095e-35
decision_type=2 2 2
left_child=1 -1 -2
right_child=2 -3 -4
leaf_value=0.17554241888058164 -0.58198904167596133 -0.4688405172659284 0.071238616730179949
leaf_weight=18384.639431975782 3478.1415981650352 2879.2285288572311 630.48727177083492
leaf_count=109508 18490 22802 3200
internal_value=0 0.0882899 -0.481748
internal_weight=0 21263.9 4108.63
internal_count=154000 132310 21690
shrinkage=0.4


Tree=5
num_leaves=4
num_cat=0
split_feature=15 6 11
split_gain=6133.6 6385.13 4552.82
threshold=1.0000000180025095e-35 1046.315031770732 10.812447471345919
decision_type=2 10 2
left_child=2 -2 -1
right_child=1 -3 -4
leaf_value=-0.46995035290067877 0.3094316384135018 -0.31721708260987064 0.13549981524294516
leaf_weight=5944.319912366569 10641.030264854431 3443.4984877370298 2985.1592256464064
leaf_count=35737 66640 32147 19476
internal_value=0 0.156224 -0.267546
internal_weight=0 14084.5 8929.48
internal_count=154000 98787 55213
shrinkage=0.4


Tree=6
num_leaves=4
num_cat=0
split_feature=3 5 5
split_gain=3858.33 5677.14 418.651
threshold=4.5000000000000009 243.50000000000003 32.500000000000007
decision_type=2 2 2
left_child=1 -1 -2
right_child=2 -3 -4
leaf_value=-0.084814206189566768 0.47762243913628055 0.41608850369320716 -0.45220507540395327
leaf_weight=12032.669383699074 79.60511239990592 5178.2872914895415 2896.8275360204279
leaf_count=89035 1126 40389 23450
internal_value=0 0.0658932 -0.427337
internal_weight=0 17211 2976.43
internal_count=154000 129424 24576
shrinkage=0.4


Tree=7
num_leaves=4
num_cat=0
split_feature=8 3 3
split_gain=3123.5 3176.46 1248.5
threshold=170.08333333333337 4.5000000000000009 1.0000000180025095e-35
decision_type=2 2 2
left_child=2 -2 -1
right_child=1 -3 -4
leaf_value=0.21772463977703269 0.1360249839847717 -0.38291939865568914 -0.52998731232225305
leaf_weight=426.92511328309774 13556.482597861439 2192.4291889183223 2191.0418511517346
leaf_count=1862 112460 24528 15150
internal_value=0 0.063782 -0.408054
internal_weight=0 15748.9 2617.97
internal_count=154000 136988 17012
shrinkage=0.4


Tree=8
num_leaves=4
num_cat=0
split_feature=1 15 3
split_gain=2306.34 3496.24 231.111
threshold=11.500000000000002 1.0000000180025095e-35 8.5000000000000018
decision_type=2 2 2
left_child=1 -1 -2
right_child=2 -3 -4
leaf_value=-0.18615527921330549 -0.43897285378801265 0.20867531992355334 1.078670461251628
leaf_weight=6113.5594248045236 1854.0403635045514 8687.6864383034408 16.194902284070849
leaf_count=54251 26630 72960 159
internal_value=0 0.0455931 -0.425831
internal_weight=0 14801.2 1870.24
internal_count=154000 127211 26789
shrinkage=0.4


Tree=9
num_leaves=4
num_cat=0
split_feature=14 3 0
split_gain=1901.4 1934.07 154.236
threshold=1.0000000180025095e-35 1.5000000000000002 48849.000000000007
decision_type=2 2 2
left_child=1 -1 -2
right_child=2 -3 -4
leaf_value=0.21396625286294807 -0.66377212787895035 -0.087497943971103526 -2.2487611155973481
leaf_weight=5367.3705511949956 616.14730390533805 9313.4300098153763 9.9823579601943475
leaf_count=56262 2874 94791 73
internal_value=0 0.0227188 -0.689042
internal_weight=0 14680.8 626.13
internal_count=154000 151053 2947
shrinkage=0.4


Tree=10
num_leaves=4
num_cat=0
split_feature=0 3 5
split_gain=1973.98 4616.13 1748.46
threshold=84.000000000000014 2.5000000000000004 243.50000000000003
decision_type=2 2 2
left_child=2 -2 -1
right_child=1 -3 -4
leaf_value=-0.44819844009778154 0.08640058755572122 -0.4540574089059991 0.44180847225175857
leaf_weight=417.41063914448023 8601.6963727832772 3581.3423251355998 2294.9504486359656
leaf_count=3213 81227 37933 31627
internal_value=0 -0.0724732 0.304844
internal_weight=0 12183 2712.36
internal_count=154000 119160 34840
shrinkage=0.4


Tree=11
num_leaves=4
num_cat=0
split_feature=1 0 3
split_gain=1947.69 1836.13 148.823
threshold=11.500000000000002 54202.500000000007 8.5000000000000018
decision_type=2 2 2
left_child=1 -1 -2
right_child=2 -3 -4
leaf_value=-0.045468056305250082 -0.43151747265346141 0.2988110693654828 0.63765799223926445
leaf_weight=8558.762893548701 1565.0678181322291 3488.960715926718 21.111054599285126
leaf_count=96016 26630 31195 159
internal_value=0 0.0542335 -0.417287
internal_weight=0 12047.7 1586.18
internal_count=154000 127211 26789
shrinkage=0.4


Tree=12
num_leaves=4
num_cat=0
split_feature=9 13 11
split_gain=1416.57 2082.99 101.953
threshold=1.0000000180025095e-35 1.0000000180025095e-35 2.7752357411764765
decision_type=2 2 2
left_child=1 -1 -2
right_child=2 -3 -4
leaf_value=-0.03768156876431928 -0.47696104903792291 0.45840033385811535 -0.8390600359202266
leaf_weight=10843.232639383757 241.26873457990587 1547.5336343441159 256.87263190001249
leaf_count=133454 3147 16110 1289
internal_value=0 0.0242761 -0.663682
internal_weight=0 12390.8 498.141
internal_count=154000 149564 4436
shrinkage=0.4


Tree=13
num_leaves=4
num_cat=0
split_feature=8 1 13
split_gain=1311.23 1496.24 777.325
threshold=184.08333333333334 11.500000000000002 1.0000000180025095e-35
decision_type=2 2 2
left_child=2 -2 -1
right_child=1 -3 -4
leaf_value=-0.458200494334153 0.10054235847242372 -0.40205299143930395 0.25202815466938555
leaf_weight=1364.3225190513767 9721.6270202826709 1050.1039780266583 300.95010102912784
leaf_count=14428 110295 26079 3198
internal_value=0 0.0515458 -0.329847
internal_weight=0 10771.7 1665.27
internal_count=154000 136374 17626
shrinkage=0.4


Tree=14
num_leaves=4
num_cat=0
split_feature=7 8 2
split_gain=1124.81 1703.14 327.47
threshold=0.048676407369485281 5617346.0000000009 47822263.500000007
decision_type=2 2 2
left_child=2 -2 -1
right_child=1 -3 -4
leaf_value=0.69408053647602885 -0.022060656961875799 0.56926863931153882 -0.65568978512260445
leaf_weight=30.542056923732162 10114.707721860032 844.37070876779035 492.57010420784354
leaf_count=130 146855 4721 2294
internal_value=0 0.0234998 -0.576883
internal_weight=0 10959.1 523.112
internal_count=154000 151576 2424
shrinkage=0.4


Tree=15
num_leaves=4
num_cat=0
split_feature=0 3 5
split_gain=1059.17 2768.1 719.265
threshold=84.000000000000014 2.5000000000000004 243.50000000000003
decision_type=2 2 2
left_child=2 -2 -1
right_child=1 -3 -4
leaf_value=-0.32043578038592907 0.094537157713175793 -0.36144325167102914 0.4215481391010536
leaf_weight=248.55293417349458 6676.5580266262405 3128.1990326291416 1314.7697788588703
leaf_count=3213 81227 37933 31627
internal_value=0 -0.050943 0.30358
internal_weight=0 9804.76 1563.32
internal_count=154000 119160 34840
shrinkage=0.4


Tree=16
num_leaves=4
num_cat=0
split_feature=6 15 0
split_gain=945.352 1352.21 920.094
threshold=1103.5782555386825 1.0000000180025095e-35 84.000000000000014
decision_type=8 2 2
left_child=1 -1 -2
right_child=2 -3 -4
leaf_value=-0.13259258492105641 0.40024978676887751 0.19764302027586034 -0.32863942293852194
leaf_weight=3335.6743612610735 322.31392316706479 4895.4441367429681 1975.1126861475641
leaf_count=32276 10850 66938 43936
internal_value=0 0.0638145 -0.226381
internal_weight=0 8231.12 2297.43
internal_count=154000 99214 54786
shrinkage=0.4


Tree=17
num_leaves=4
num_cat=0
split_feature=0 5 3
split_gain=864.983 2679.78 1992.46
threshold=30606.500000000004 243.50000000000003 2.5000000000000004
decision_type=2 2 2
left_child=1 -1 -2
right_child=2 -3 -4
leaf_value=-0.53575882227126315 0.211818181322105 0.38828531854124593 -0.22639166521578288
leaf_weight=1460.1081706808181 4992.2523377833422 765.37302570370957 2487.2681614509784
leaf_count=14781 71752 33420 34047
internal_value=0 -0.217968 0.0660942
internal_weight=0 2225.48 7479.52
internal_count=154000 48201 105799
shrinkage=0.4


Tree=18
num_leaves=4
num_cat=0
split_feature=5 3 5
split_gain=800.055 1985.28 1512.3
threshold=247.50000000000003 2.5000000000000004 973.50000000000011
decision_type=2 2 2
left_child=1 -1 -2
right_child=2 -3 -4
leaf_value=0.026935106380093294 0.38169191706199745 -0.56870646442517436 -0.3763674458720831
leaf_weight=5343.2587649459019 1768.1850085756741 1075.5204823348904 552.67901322571561
leaf_count=80656 42391 12600 18353
internal_value=0 -0.0728697 0.201171
internal_weight=0 6418.78 2320.86
internal_count=154000 93256 60744
shrinkage=0.4


Tree=19
num_leaves=4
num_cat=0
split_feature=6 0 5
split_gain=757.201 964.526 608.429
threshold=1399.3340602279645 30606.500000000004 913.50000000000011
decision_type=8 2 2
left_child=1 -1 -2
right_child=2 -3 -4
leaf_value=-0.26335611730250863 -0.38651030074697224 0.13170529287782398 0.22987176303538526
leaf_weight=1216.0939815697493 1201.7502163125318 5290.1360682550585 325.66686348803341
leaf_count=33304 44192 69384 7120
internal_value=0 0.0578635 -0.255089
internal_weight=0 6506.23 1527.42
internal_count=154000 102688 51312
shrinkage=0.4


Tree=20
num_leaves=4
num_cat=0
split_feature=15 16 6
split_gain=520.665 701.985 99.673
threshold=3.5000000000000004 5197066.0000000009 3.0043847756717241
decision_type=2 2 8
left_child=1 -1 -2
right_child=2 -3 -4
leaf_value=-0.0042940935943407681 -3.6285382300305877 3.0098403495377704 -0.72480482357265197
leaf_weight=7488.0235315440805 7.4427518248558018 12.383409939415285 2.5358252599835405
leaf_count=153246 76 622 56
internal_value=0 0.000682338 -2.89062
internal_weight=0 7500.41 9.97858
internal_count=154000 153868 132
shrinkage=0.4


Tree=21
num_leaves=4
num_cat=0
split_feature=1 2 3
split_gain=483.328 654.257 341.259
threshold=11.500000000000002 47822263.500000007 1286.0000000000002
decision_type=2 2 2
left_child=1 -1 -2
right_child=2 -3 -4
leaf_value=0.059813283170226807 -0.39996054671725145 -0.37348209858676557 2.9428981146909154
leaf_weight=6443.037059123948 537.3493184101826 610.39369317889214 4.9310094118118277
leaf_count=116753 26747 10458 42
internal_value=0 0.0223165 -0.369564
internal_weight=0 7053.43 542.28
internal_count=154000 127211 26789
shrinkage=0.4


Tree=22
num_leaves=4
num_cat=0
split_feature=8 5 13
split_gain=419.883 496.788 367.116
threshold=145.58333333333337 973.50000000000011 1.0000000180025095e-35
decision_type=2 2 2
left_child=2 -2 -1
right_child=1 -3 -4
leaf_value=-0.39332532227538131 0.059591548851458565 -0.37241473794058977 0.27769947948983098
leaf_weight=702.95139261623262 5914.2886415820394 458.95372007763945 160.17543479334563
leaf_count=13057 119857 18349 2737
internal_value=0 0.0284817 -0.268799
internal_weight=0 6373.24 863.127
internal_count=154000 138206 15794
shrinkage=0.4


Tree=23
num_leaves=4
num_cat=0
split_feature=5 3 3
split_gain=449.416 1436.47 664.831
threshold=243.50000000000003 2.5000000000000004 6.5000000000000009
decision_type=2 2 2
left_child=1 -1 -2
right_child=2 -3 -4
leaf_value=0.031608361297142375 0.29549889603160912 -0.52280755618669494 -0.32898644534009547
leaf_weight=4242.3745314011467 1365.4670063590747 907.72057432754082 340.85169864422642
leaf_count=80605 40898 12384 20113
internal_value=0 -0.0661092 0.170753
internal_weight=0 5150.1 1706.32
internal_count=154000 92989 61011
shrinkage=0.4


Tree=24
num_leaves=4
num_cat=0
split_feature=6 11 13
split_gain=459.105 593.013 363.034
threshold=1555.5175470646307 11.951449804066558 1.0000000180025095e-35
decision_type=8 2 2
left_child=1 -1 -2
right_child=2 -3 -4
leaf_value=-0.073982743784143087 -0.44810511544391551 0.19643152569403566 0.045885277133649871
leaf_weight=3078.4097058303014 610.03887452910567 2242.9643369026016 390.33113708382007
leaf_count=65040 33460 38806 16694
internal_value=0 0.0399971 -0.255357
internal_weight=0 5321.37 1000.37
internal_count=154000 103846 50154
shrinkage=0.4


Tree=25
num_leaves=4
num_cat=0
split_feature=5 5 6
split_gain=440.793 659.112 536.47
threshold=913.50000000000011 973.50000000000011 403.10444371072407
decision_type=2 2 10
left_child=2 -2 -1
right_child=1 -3 -4
leaf_value=0.0043455727641449607 0.48681059425254303 -0.29462512952283326 -0.36123302176969985
leaf_weight=4337.2232245375053 601.33520969888195 242.28245208947919 753.88429636630826
leaf_count=82038 6338 18353 47271
internal_value=0 0.262386 -0.0497888
internal_weight=0 843.618 5091.11
internal_count=154000 24691 129309
shrinkage=0.4


Tree=26
num_leaves=4
num_cat=0
split_feature=14 0 0
split_gain=364.424 347.878 39.1356
threshold=1.0000000180025095e-35 84.000000000000014 41279.000000000007
decision_type=2 2 2
left_child=1 -1 -2
right_child=2 -3 -4
leaf_value=0.35123206998529743 -0.46181045864806541 -0.012447250608485576 -1.1459420706054497
leaf_weight=460.16764455774683 205.99595481622964 4923.2968870159966 14.30791664834396
leaf_count=33543 2873 117510 74
internal_value=0 0.0186393 -0.506242
internal_weight=0 5383.46 220.304
internal_count=154000 151053 2947
shrinkage=0.4


Tree=27
num_leaves=4
num_cat=0
split_feature=7 8 0
split_gain=281.549 331.365 185.722
threshold=7696.538884657698 40450000.000000007 708.00000000000011
decision_type=2 2 2
left_child=1 -1 -2
right_child=2 -3 -4
leaf_value=0.064773995991722913 -0.45937665608629275 -0.35770272351128235 -0.061817561786189794
leaf_weight=4362.9489333601377 317.18315497323056 318.74525735597126 461.65667062558714
leaf_count=133011 9306 2371 9312
internal_value=0 0.0360104 -0.223724
internal_weight=0 4681.69 778.84
internal_count=154000 135382 18618
shrinkage=0.4


Tree=28
num_leaves=4
num_cat=0
split_feature=9 13 11
split_gain=261.006 353.93 2.08051
threshold=1.0000000180025095e-35 1.0000000180025095e-35 0.19710132523786886
decision_type=2 2 2
left_child=1 -1 -2
right_child=2 -3 -4
leaf_value=-0.017138298800734891 -0.42322429035863041 0.38136069629097608 -0.53036408028187121
leaf_weight=4696.6204262860319 37.995246981852688 385.90168056171387 122.48317727318499
leaf_count=133454 3045 16110 1391
internal_value=0 0.0131186 -0.504997
internal_weight=0 5082.52 160.478
internal_count=154000 149564 4436
shrinkage=0.4


Tree=29
num_leaves=4
num_cat=0
split_feature=8 11 2
split_gain=263.23 778.996 454.653
threshold=2424403.0564516135 0.85031754054877473 47822263.500000007
decision_type=2 2 2
left_child=1 -1 -2
right_child=2 -3 -4
leaf_value=-0.42537319058705525 0.38680829792063309 0.033507655533867808 -0.17504998544537176
leaf_weight=715.73446570045417 635.50700871524168 3421.3593441605826 361.52034976118011
leaf_count=17272 4134 124219 8375
internal_value=0 -0.0458806 0.183079
internal_weight=0 4137.09 997.027
internal_count=154000 141491 12509
shrinkage=0.4


Tree=30
num_leaves=4
num_cat=0
split_feature=6 11 3
split_gain=203.574 359.782 233.799
threshold=2052.2415685085284 10.812447471345919 3.5000000000000004
decision_type=10 2 2
left_child=1 -1 -2
right_child=2 -3 -4
leaf_value=-0.071536254510072603 -0.37363016112780068 0.16223651097642822 0.25065518695284056
leaf_weight=2483.6352924002276 421.89880285644904 1829.0908488122514 124.251174968952
leaf_count=66922 34015 39600 13463
internal_value=0 0.0276102 -0.231603
internal_weight=0 4312.73 546.15
internal_count=154000 106522 47478
shrinkage=0.4


Tree=31
num_leaves=4
num_cat=0
split_feature=5 5 4
split_gain=250.618 416.673 396.288
threshold=913.50000000000011 973.50000000000011 1.5000000000000002
decision_type=2 2 2
left_child=2 -2 -1
right_child=1 -3 -4
leaf_value=0.031828316374655136 0.46522657714031973 -0.24683227517474915 -0.2656938347758166
leaf_weight=3092.051967363881 413.45611957181245 192.80244665476494 932.26136651870183
leaf_count=79455 6338 18353 49854
internal_value=0 0.238778 -0.0370948
internal_weight=0 606.259 4024.31
internal_count=154000 24691 129309
shrinkage=0.4


Tree=32
num_leaves=4
num_cat=0
split_feature=2 11 8
split_gain=249.353 651.644 219.044
threshold=1170524.5000000002 9.93859228421117 40450000.000000007
decision_type=2 2 2
left_child=1 -1 -2
right_child=2 -3 -4
leaf_value=-0.3760581464255805 0.19400566564953795 0.049240899420761403 -0.21923386237708431
leaf_weight=795.29674680323751 1328.6466091973998 2094.4900978114256 242.72675904701464
leaf_count=17258 50584 83787 2371
internal_value=0 -0.0678054 0.130173
internal_weight=0 2889.79 1571.37
internal_count=154000 101045 52955
shrinkage=0.4


Tree=33
num_leaves=4
num_cat=0
split_feature=14 0 0
split_gain=200.055 200.646 7.98877
threshold=1.0000000180025095e-35 49182.500000000007 9916.5000000000018
decision_type=2 2 2
left_child=1 -1 -2
right_child=2 -3 -4
leaf_value=0.13639835308211082 -0.44019589755182609 -0.048424196504307911 -0.74344469162329441
leaf_weight=1443.7045218221974 121.49540032760706 2692.6678684395156 15.695165892159819
leaf_count=60679 2870 90374 77
internal_value=0 0.0160838 -0.474889
internal_weight=0 4136.37 137.191
internal_count=154000 151053 2947
shrinkage=0.4


Tree=34
num_leaves=4
num_cat=0
split_feature=8 0 5
split_gain=191.426 261.164 183.801
threshold=5617346.0000000009 50771.500000000007 243.50000000000003
decision_type=2 2 2
left_child=2 -2 -1
right_child=1 -3 -4
leaf_value=-0.086961077535791367 -0.15845649493310138 0.37847219579002411 0.12900070321748169
leaf_weight=2723.3844640755106 217.72977457509842 433.58337680029217 820.51449283443799
leaf_count=86570 3426 3719 60285
internal_value=0 0.19898 -0.0369597
internal_weight=0 651.313 3543.9
internal_count=154000 7145 146855
shrinkage=0.4


Tree=35
num_leaves=4
num_cat=0
split_feature=12 4 3
split_gain=158.453 440.813 240.547
threshold=1.0000000180025095e-35 2.5000000000000004 1.5000000000000002
decision_type=2 2 2
left_child=2 -2 -1
right_child=1 -3 -4
leaf_value=0.15188051481325707 -0.86556835821169154 0.49298961683915277 -0.054950361958842266
leaf_weight=1383.1940460431506 107.12724613837054 59.403555297292769 2573.7505143785384
leaf_count=58069 1144 1210 93577
internal_value=0 -0.380954 0.0173497
internal_weight=0 166.531 3956.94
internal_count=154000 2354 151646
shrinkage=0.4


Tree=36
num_leaves=4
num_cat=0
split_feature=7 3 4
split_gain=129.727 210.043 160.961
threshold=26402.92784942489 1.0000000180025095e-35 1.5000000000000002
decision_type=2 2 2
left_child=2 -2 -1
right_child=1 -3 -4
leaf_value=0.079638932829700734 0.23597521953312861 -0.46343662849582162 -0.099869224395484957
leaf_weight=2497.9270682931906 100.15912903076969 218.7356712458477 1175.2617868683446
leaf_count=70682 1737 8990 72591
internal_value=0 -0.243764 0.0222041
internal_weight=0 318.895 3673.19
internal_count=154000 10727 143273
shrinkage=0.4


Tree=37
num_leaves=4
num_cat=0
split_feature=17 5 2
split_gain=135.606 140.62 61.4675
threshold=20030162.402227793 913.50000000000011 102452293.00000001
decision_type=2 2 2
left_child=1 -1 -2
right_child=2 -3 -4
leaf_value=-0.032572462957148905 -0.44085833601961161 0.2014665168833355 1.7310540419350529
leaf_weight=3426.0825246086602 2.6122679534309983 466.71886959460971 10.326843516901135
leaf_count=129182 196 24540 82
internal_value=0 -0.00451287 1.29257
internal_weight=0 3892.8 12.9391
internal_count=154000 153722 278
shrinkage=0.4


Tree=38
num_leaves=4
num_cat=0
split_feature=0 0 11
split_gain=146.759 444.255 166.529
threshold=84.000000000000014 708.00000000000011 0.045792635134282382
decision_type=2 2 2
left_child=2 -2 -1
right_child=1 -3 -4
leaf_value=-0.464589294985019 -0.54567839090555903 0.014186751770069306 0.37323560830337321
leaf_weight=43.981296349564218 243.25157786215732 3346.9096092544964 277.16018804001214
leaf_count=1498 9449 109711 33342
internal_value=0 -0.0237469 0.258493
internal_weight=0 3590.16 321.141
internal_count=154000 119160 34840
shrinkage=0.4


Tree=39
num_leaves=4
num_cat=0
split_feature=0 4 12
split_gain=133.688 329.224 313.026
threshold=49182.500000000007 1.0000000180025095e-35 1.0000000180025095e-35
decision_type=2 2 2
left_child=1 -1 -2
right_child=2 -3 -4
leaf_value=-0.48241639534518194 -0.035388459790873066 0.18124483400735303 -1.1196090111971935
leaf_weight=134.52901799993606 2493.9943037015305 1077.455528438436 43.345979088917375
leaf_count=7427 90053 56134 386
internal_value=0 0.107579 -0.0539105
internal_weight=0 1211.98 2537.34
internal_count=154000 63561 90439
shrinkage=0.4


Tree=40
num_leaves=4
num_cat=0
split_feature=3 6 4
split_gain=138.778 424.563 395.557
threshold=2.5000000000000004 1.0000000180025095e-35 1.5000000000000002
decision_type=2 10 2
left_child=2 -2 -1
right_child=1 -3 -4
leaf_value=0.11200738241217789 -0.4996599839732081 0.035270273108579629 -0.37642761901674771
leaf_weight=2180.511592382154 329.31470561237802 850.46972605366773 302.03300549641426
leaf_count=72308 3621 67101 10970
internal_value=0 -0.114045 0.0525831
internal_weight=0 1179.78 2482.54
internal_count=154000 70722 83278
shrinkage=0.4


Tree=41
num_leaves=4
num_cat=0
split_feature=6 2 11
split_gain=117.791 145.327 131.772
threshold=2052.2415685085284 2172893.0000000005 12.845792682281846
decision_type=10 2 2
left_child=2 -2 -1
right_child=1 -3 -4
leaf_value=-0.041773619994244116 -0.24522504516785473 0.95635212104448442 0.12716560666307347
leaf_weight=1873.0246424522666 413.77367579356996 16.757295411429368 1219.8294949360425
leaf_count=67680 47192 286 38842
internal_value=0 -0.198457 0.0248564
internal_weight=0 430.531 3092.85
internal_count=154000 47478 106522
shrinkage=0.4


Tree=42
num_leaves=4
num_cat=0
split_feature=0 11 0
split_gain=116.281 226.688 132.232
threshold=55803.500000000007 0.033225778373812916 48849.000000000007
decision_type=2 2 2
left_child=2 -2 -1
right_child=1 -3 -4
leaf_value=0.061764609142475196 0.43964538067796433 -0.0032725384826193579 -0.12494655796188954
leaf_weight=1045.7313121632071 255.92619028806803 666.04891148948809 1446.2158318405857
leaf_count=63117 2442 38246 50195
internal_value=0 0.119675 -0.0465943
internal_weight=0 921.975 2491.95
internal_count=154000 40688 113312
shrinkage=0.4


Tree=43
num_leaves=4
num_cat=0
split_feature=14 9 2
split_gain=105.39 104.005 2.89214
threshold=1.0000000180025095e-35 1.0000000180025095e-35 9327.0000000000018
decision_type=2 2 2
left_child=1 -1 -2
right_child=2 -3 -4
leaf_value=0.022003158285051578 -0.41060124686497101 -0.46754160268943262 -0.58025569551710587
leaf_weight=3200.3694095764263 54.823378275860705 70.976819186325883 22.748127655955614
leaf_count=146667 2726 4386 221
internal_value=0 0.0113817 -0.460353
internal_weight=0 3271.35 77.5715
internal_count=154000 151053 2947
shrinkage=0.4


Tree=44
num_leaves=4
num_cat=0
split_feature=5 5 6
split_gain=91.3003 361.262 178.075
threshold=913.50000000000011 973.50000000000011 366.97808081910108
decision_type=2 2 10
left_child=2 -2 -1
right_child=1 -3 -4
leaf_value=0.007893682335163554 0.44304828138157115 -0.25102881673274025 -0.30479050325608792
leaf_weight=2465.4924998546012 291.39264601049945 203.97436491546978 330.47625024963918
leaf_count=81032 6338 18353 48277
internal_value=0 0.157252 -0.0290648
internal_weight=0 495.367 2795.97
internal_count=154000 24691 129309
shrinkage=0.4


Tree=45
num_leaves=4
num_cat=0
split_feature=13 2 4
split_gain=106.357 184.347 153.356
threshold=1.0000000180025095e-35 18049387.500000004 1.5000000000000002
decision_type=2 2 2
left_child=2 -2 -1
right_child=1 -3 -4
leaf_value=0.032350958408880456 0.088911098569761843 0.92403029808758896 -0.17855472442947684
leaf_weight=2041.2369277398411 276.59328924322108 49.925791714449588 755.90167791443127
leaf_count=75722 18942 1604 57732
internal_value=0 0.216603 -0.0246444
internal_weight=0 326.519 2797.14
internal_count=154000 20546 133454
shrinkage=0.4


Tree=46
num_leaves=4
num_cat=0
split_feature=0 0 4
split_gain=100.614 289.109 133.221
threshold=84.000000000000014 708.00000000000011 1.5000000000000002
decision_type=2 2 2
left_child=2 -2 -1
right_child=1 -3 -4
leaf_value=-0.36019619532637448 -0.55972293672523998 0.0089384152021184694 0.40366771215375225
leaf_weight=45.479123325338605 150.97638951266435 2723.0864751830286 185.66965123813134
leaf_count=2934 9449 109711 31906
internal_value=0 -0.0209337 0.253375
internal_weight=0 2874.06 231.149
internal_count=154000 119160 34840
shrinkage=0.4


Tree=47
num_leaves=4
num_cat=0
split_feature=5 5 3
split_gain=77.4125 224.2 139.754
threshold=913.50000000000011 973.50000000000011 2.5000000000000004
decision_type=2 2 2
left_child=2 -2 -1
right_child=1 -3 -4
leaf_value=0.02370865226927981 0.42751927668141221 -0.19361502723690033 -0.19904352103007897
leaf_weight=2033.4897406290511 221.80926984059624 160.08283063241106 578.95718372340707
leaf_count=81124 6338 18353 48185
internal_value=0 0.16715 -0.0256566
internal_weight=0 381.892 2612.45
internal_count=154000 24691 129309
shrinkage=0.4


Tree=48
num_leaves=4
num_cat=0
split_feature=0 0 4
split_gain=78.6626 196.559 80.7332
threshold=417.50000000000006 708.00000000000011 1.5000000000000002
decision_type=2 2 2
left_child=2 -2 -1
right_child=1 -3 -4
leaf_value=-0.28529630356993185 -0.56103985044432381 0.0044101516712417559 0.37022506930708821
leaf_weight=37.110993884481331 102.28377204840945 2564.9964582820739 158.23080205701058
leaf_count=3115 9198 109711 31976
internal_value=0 -0.0172735 0.245689
internal_weight=0 2667.28 195.342
internal_count=154000 118909 35091
shrinkage=0.4


Tree=49
num_leaves=4
num_cat=0
split_feature=11 2 6
split_gain=61.1498 213.869 135.733
threshold=9.93859228421117 437831.50000000006 39.256915933994108
decision_type=2 2 10
left_child=1 -1 -2
right_child=2 -3 -4
leaf_value=-0.32988646632092261 0.12714114966593687 0.028329633143310891 -0.19935415386646083
leaf_weight=347.97721674210788 1043.9880430551711 1141.3181372505496 253.12452030191344
leaf_count=13451 38921 56680 44948
internal_value=0 -0.0553684 0.0634274
internal_weight=0 1489.3 1297.11
internal_count=154000 70131 83869
shrinkage=0.4


Tree=50
num_leaves=4
num_cat=0
split_feature=6 3 13
split_gain=63.6822 333.87 56.5373
threshold=1612518.7240416694 1.0000000180025095e-35 1.0000000180025095e-35
decision_type=8 2 2
left_child=2 -2 -1
right_child=1 -3 -4
leaf_value=-0.022119065484560396 13.6337095691187 -0.20467183915883777 0.16901900079440768
leaf_weight=2375.384700912623 0.34179896826435552 1.5170669442309188 276.41918329748296
leaf_count=132491 18 1490 20001
internal_value=0 2.33986 -0.00219518
internal_weight=0 1.85887 2651.8
internal_count=154000 1508 152492
shrinkage=0.4


Tree=51
num_leaves=4
num_cat=0
split_feature=4 5 8
split_gain=69.4311 287.155 187.753
threshold=1.5000000000000002 243.50000000000003 53.166666666666671
decision_type=2 2 2
left_child=2 -2 -1
right_child=1 -3 -4
leaf_value=-0.50629697713438115 -0.38538273280097607 0.097007618110518889 0.071074591285212388
leaf_weight=95.044571221322713 332.57503546477346 485.9220189212283 1737.3039362159648
leaf_count=7737 13828 60717 71718
internal_value=0 -0.0989992 0.0411261
internal_weight=0 818.497 1832.35
internal_count=154000 74545 79455
shrinkage=0.4


Tree=52
num_leaves=4
num_cat=0
split_feature=8 8 0
split_gain=59.4596 156.352 65.8125
threshold=40450000.000000007 5617346.0000000009 53828.500000000007
decision_type=2 2 2
left_child=1 -1 -2
right_child=2 -3 -4
leaf_value=-0.020919441186166059 -0.29318662234028048 0.30380468794787135 0.38932272531933698
leaf_weight=2106.0571818444287 181.01100073871203 267.36154460401303 25.831231859512627
leaf_count=146855 2184 4774 187
internal_value=0 0.0156602 -0.207952
internal_weight=0 2373.42 206.842
internal_count=154000 151629 2371
shrinkage=0.4


Tree=53
num_leaves=4
num_cat=0
split_feature=11 2 1
split_gain=62.8512 96.5795 77.4467
threshold=90.633072194098759 10204.000000000002 11.500000000000002
decision_type=2 2 2
left_child=1 -1 -2
right_child=2 -3 -4
leaf_value=-0.47924564685618692 0.13638674152716726 -0.020796357504219452 -0.40246923359555231
leaf_weight=76.76819571787928 651.65955521903015 1739.1703668422033 45.665910726117545
leaf_count=9952 38662 87602 17784
internal_value=0 -0.0401771 0.101099
internal_weight=0 1815.94 697.325
internal_count=154000 97554 56446
shrinkage=0.4


Tree=54
num_leaves=4
num_cat=0
split_feature=16 4 15
split_gain=57.698 134.579 91.522
threshold=20890.000000000004 16.500000000000004 1.0000000180025095e-35
decision_type=2 2 2
left_child=1 -1 -2
right_child=2 -3 -4
leaf_value=0.0079230555360669357 0.10747181055636801 1.63332736054834 -0.53705143679021117
leaf_weight=2284.9008855141446 63.818362525533303 8.1795231034338922 78.748089695567614
leaf_count=143524 5393 394 4689
internal_value=0 0.0137209 -0.248537
internal_weight=0 2293.08 142.566
internal_count=154000 143918 10082
shrinkage=0.4


Tree=55
num_leaves=4
num_cat=0
split_feature=2 2 0
split_gain=46.3511 118.793 93.4546
threshold=60423399.500000007 47822263.500000007 3389.5000000000005
decision_type=2 2 2
left_child=1 -1 -2
right_child=2 -3 -4
leaf_value=0.0039375834011533377 -0.31236222520598073 -0.40562574336330243 0.41554191035857785
leaf_weight=2166.4262925197363 38.760626627910824 119.56364267690878 103.78577506021247
leaf_count=143290 2273 1785 6652
internal_value=0 -0.0174837 0.217613
internal_weight=0 2285.99 142.546
internal_count=154000 145075 8925
shrinkage=0.4


Tree=56
num_leaves=4
num_cat=0
split_feature=16 7 3
split_gain=47.9476 79.3822 75.063
threshold=11191.333333333336 0.60713504677969243 2.5000000000000004
decision_type=2 2 2
left_child=1 -1 -2
right_child=2 -3 -4
leaf_value=0.17886480450917555 -0.98677565875694029 -0.023196731204543127 -0.11723855052363118
leaf_weight=372.35118479336961 18.340154072502628 1890.5639094385133 118.62568996720074
leaf_count=6343 233 137080 10344
internal_value=0 0.0100515 -0.233672
internal_weight=0 2262.92 136.966
internal_count=154000 143423 10577
shrinkage=0.4


Tree=57
num_leaves=4
num_cat=0
split_feature=0 11 4
split_gain=49.6423 171.181 120.108
threshold=48849.000000000007 1.0000000180025095e-35 1.5000000000000002
decision_type=2 2 2
left_child=1 -1 -2
right_child=2 -3 -4
leaf_value=-0.52105606079967715 0.029401736659957812 0.1438248858097807 -0.20664554355236034
leaf_weight=68.18912322953247 1150.4295589045241 677.87032593433696 492.57572348545909
leaf_count=7424 54432 55693 36451
internal_value=0 0.0830554 -0.0413656
internal_weight=0 746.059 1643.01
internal_count=154000 63117 90883
shrinkage=0.4


Tree=58
num_leaves=4
num_cat=0
split_feature=5 3 6
split_gain=50.1615 163.832 83.1452
threshold=913.50000000000011 6.5000000000000009 333.06122641731753
decision_type=2 2 8
left_child=2 -2 -1
right_child=1 -3 -4
leaf_value=0.00053923446020635337 0.36200867645427703 -0.25212043959232361 -0.28153792050074328
leaf_weight=1831.1080868699084 199.90160654389183 106.54705745945103 183.99425756797586
leaf_count=79257 6747 17944 50052
internal_value=0 0.148486 -0.0252166
internal_weight=0 306.449 2015.1
internal_count=154000 24691 129309
shrinkage=0.4


Tree=59
num_leaves=4
num_cat=0
split_feature=14 0 0
split_gain=42.0148 47.9096 0.836841
threshold=1.0000000180025095e-35 417.50000000000006 41279.000000000007
decision_type=2 2 2
left_child=1 -1 -2
right_child=2 -3 -4
leaf_value=0.23842506043233891 -0.41886108555620605 -0.0094065568756726906 -0.55608071692170824
leaf_weight=132.77157317268347 17.977528587958464 2079.7723011279404 11.764398263227319
leaf_count=33794 2873 117259 74
internal_value=0 0.00546546 -0.473138
internal_weight=0 2212.54 29.7419
internal_count=154000 151053 2947
shrinkage=0.4


Tree=60
num_leaves=4
num_cat=0
split_feature=12 11 3
split_gain=42.6332 136.062 44.542
threshold=1.0000000180025095e-35 97619.047619047633 2.5000000000000004
decision_type=2 2 2
left_child=2 -2 -1
right_child=1 -3 -4
leaf_value=0.047933047175304853 -0.42225228025217698 1.0852550589147076 -0.080359401982304443
leaf_weight=1518.198190098128 87.800625900998057 10.752493610605596 605.76854802746334
leaf_count=82014 2259 95 69632
internal_value=0 -0.257778 0.0113432
internal_weight=0 98.5531 2123.97
internal_count=154000 2354 151646
shrinkage=0.4


Tree=61
num_leaves=4
num_cat=0
split_feature=5 6 5
split_gain=43.7348 92.265 87.0788
threshold=488.50000000000006 1612518.7240416694 973.50000000000011
decision_type=2 8 2
left_child=1 -1 -2
right_child=2 -3 -4
leaf_value=-0.022103038171135566 0.30238355422170571 -5.8958230845506812 -0.14202244570841591
leaf_weight=1886.9170390443007 193.05965270358865 0.42798539350655929 111.16789565166255
leaf_count=126141 8022 1484 18353
internal_value=0 -0.023435 0.139993
internal_weight=0 1887.35 304.228
internal_count=154000 127625 26375
shrinkage=0.4


Tree=62
num_leaves=4
num_cat=0
split_feature=2 2 5
split_gain=41.85 82.4722 76.661
threshold=62228611.500000007 47822263.500000007 32.500000000000007
decision_type=2 2 2
left_child=1 -1 -2
right_child=2 -3 -4
leaf_value=0.0056489228876733105 0.45640369622005122 -0.35726181572761262 -0.21062375996959193
leaf_weight=1937.3107114142372 80.409289617346076 105.65491950606247 41.950892780343565
leaf_count=143290 2144 2380 6186
internal_value=0 -0.0131195 0.227715
internal_weight=0 2042.97 122.36
internal_count=154000 145670 8330
shrinkage=0.4


Tree=63
num_leaves=4
num_cat=0
split_feature=5 5 3
split_gain=34.4331 73.0681 64.6412
threshold=913.50000000000011 964.50000000000011 4.5000000000000009
decision_type=2 2 2
left_child=2 -2 -1
right_child=1 -3 -4
leaf_value=-0.031276038631296757 0.39753582966519091 -0.079457941733466347 0.36687573739358503
leaf_weight=1866.4146795679692 100.98017560702283 104.61762220421951 67.605975219020593
leaf_count=122983 6075 18616 6326
internal_value=0 0.154819 -0.0173582
internal_weight=0 205.598 1934.02
internal_count=154000 24691 129309
shrinkage=0.4


Tree=64
num_leaves=4
num_cat=0
split_feature=3 6 4
split_gain=35.4924 206.253 135.543
threshold=2.5000000000000004 1.0000000180025095e-35 1.5000000000000002
decision_type=2 8 2
left_child=2 -2 -1
right_child=1 -3 -4
leaf_value=0.078656390668936094 -0.46589892032458141 0.071643360525037961 -0.25636984574429972
leaf_weight=1353.7562009923477 162.14162030208587 386.31648067884447 225.38240261373858
leaf_count=72308 3621 67101 10970
internal_value=0 -0.0872712 0.0308398
internal_weight=0 548.458 1579.14
internal_count=154000 70722 83278
shrinkage=0.4


Tree=65
num_leaves=4
num_cat=0
split_feature=0 0 4
split_gain=39.0685 127.777 55.3116
threshold=417.50000000000006 708.00000000000011 1.5000000000000002
decision_type=2 2 2
left_child=2 -2 -1
right_child=1 -3 -4
leaf_value=-0.31284795282063776 -0.62422866509928188 0.001857748881823852 0.34346167373979514
leaf_weight=25.678341381117335 53.645956709102393 1877.9322164523551 102.78636183884815
leaf_count=3115 9198 109711 31976
internal_value=0 -0.0155306 0.212274
internal_weight=0 1931.58 128.465
internal_count=154000 118909 35091
shrinkage=0.4


Tree=66
num_leaves=4
num_cat=0
split_feature=11 3 4
split_gain=33.9605 84.9786 70.5919
threshold=97619.047619047633 1.0000000180025095e-35 1.5000000000000002
decision_type=2 2 2
left_child=2 -2 -1
right_child=1 -3 -4
leaf_value=0.034529541030212406 0.45496583943167024 -0.41359596249337227 -0.13658554434326092
leaf_weight=1392.7203858759517 70.394503250718031 24.225468047100861 533.51011062255634
leaf_count=78729 1272 752 73247
internal_value=0 0.232589 -0.0128644
internal_weight=0 94.62 1926.23
internal_count=154000 2024 151976
shrinkage=0.4


Tree=67
num_leaves=4
num_cat=0
split_feature=5 0 6
split_gain=31.4054 85.5345 62.6163
threshold=913.50000000000011 5867.5000000000009 43.974808463048326
decision_type=2 2 8
left_child=2 -2 -1
right_child=1 -3 -4
leaf_value=0.013652109963784477 0.89744550007906099 0.055772294538620884 -0.20415029550838112
leaf_weight=1561.9321960086347 22.073465593479341 154.78716968879598 244.2155090942199
leaf_count=59628 399 24292 69681
internal_value=0 0.160819 -0.0157977
internal_weight=0 176.861 1806.15
internal_count=154000 24691 129309
shrinkage=0.4


Tree=68
num_leaves=4
num_cat=0
split_feature=0 0 1
split_gain=37.3355 83.5448 41.4788
threshold=417.50000000000006 708.00000000000011 1.0000000180025095e-35
decision_type=2 2 2
left_child=2 -2 -1
right_child=1 -3 -4
leaf_value=-0.51911776714564672 -0.62857993142556345 -0.0027483018206892326 0.28412903153686403
leaf_weight=11.310013887896273 34.785830384490964 1807.6959362632763 113.61069847761928
leaf_count=1365 9198 109711 33726
internal_value=0 -0.0145639 0.211405
internal_weight=0 1842.48 124.921
internal_count=154000 118909 35091
shrinkage=0.4


Tree=69
num_leaves=4
num_cat=0
split_feature=11 2 0
split_gain=26.3725 72.7929 50.7694
threshold=19.223745186018437 25716.500000000004 48849.000000000007
decision_type=2 2 2
left_child=1 -1 -2
right_child=2 -3 -4
leaf_value=-0.45616374021971479 0.19215813580160121 -0.014671210567502575 -0.020680841675586356
leaf_weight=63.181362199386967 281.51213163453087 1101.2995086441797 493.95144250131432
leaf_count=10022 27586 65490 50902
internal_value=0 -0.0386253 0.0565849
internal_weight=0 1164.48 775.464
internal_count=154000 75512 78488
shrinkage=0.4


Tree=70
num_leaves=4
num_cat=0
split_feature=0 11 0
split_gain=29.5355 68.0215 46.2484
threshold=52748.500000000007 0.045792635134282382 49383.500000000007
decision_type=2 2 2
left_child=2 -2 -1
right_child=1 -3 -4
leaf_value=0.03205764370916693 0.24524517139250412 -0.015599499001724025 -0.13113708210205155
leaf_weight=608.01910275011687 223.6180325059338 561.86550725649954 511.65875218385963
leaf_count=64875 4539 54510 30076
internal_value=0 0.0586599 -0.0425174
internal_weight=0 785.484 1119.68
internal_count=154000 59049 94951
shrinkage=0.4


Tree=71
num_leaves=4
num_cat=0
split_feature=12 4 2
split_gain=24.8364 103.671 32.6815
threshold=1.0000000180025095e-35 1.5000000000000002 92830.000000000015
decision_type=2 2 2
left_child=2 -2 -1
right_child=1 -3 -4
leaf_value=0.067931381708058541 -1.1272091290875339 -0.0054017363107907879 -0.040368265437699676
leaf_weight=838.90776289017822 16.028881665727567 74.181510516995331 951.48762423010339
leaf_count=88533 420 1934 63113
internal_value=0 -0.204728 0.0103766
internal_weight=0 90.2104 1790.4
internal_count=154000 2354 151646
shrinkage=0.4


Tree=72
num_leaves=4
num_cat=0
split_feature=2 13 11
split_gain=31.8695 85.0144 45.0022
threshold=345.50000000000006 1.0000000180025095e-35 147.58033362114648
decision_type=2 2 2
left_child=1 -1 -2
right_child=2 -3 -4
leaf_value=-0.23252247381472968 -0.0079602898041930634 0.41449217512263303 0.17574504371119057
leaf_weight=210.73124375509406 1353.8386625793441 38.415931250508038 253.27326128076879
leaf_count=18442 93447 2831 39280
internal_value=0 -0.132759 0.0209908
internal_weight=0 249.147 1607.11
internal_count=154000 21273 132727
shrinkage=0.4


Tree=73
num_leaves=4
num_cat=0
split_feature=17 16 4
split_gain=27.7745 32.7664 30.5784
threshold=194252.4858402719 35871.666666666679 1.0000000180025095e-35
decision_type=2 2 2
left_child=1 -1 -2
right_child=2 -3 -4
leaf_value=0.0030683325570614096 -0.79901385143710546 -0.3248489231496805 0.43811083189543237
leaf_weight=1727.8198183779232 3.5021877162507726 50.170845803055272 36.6539395901018
leaf_count=144350 376 6023 3251
internal_value=0 -0.00618475 0.330216
internal_weight=0 1777.99 40.1561
internal_count=154000 150373 3627
shrinkage=0.4


Tree=74
num_leaves=4
num_cat=0
split_feature=2 8 2
split_gain=25.3545 54.4906 44.8843
threshold=10057074.000000002 40450000.000000007 5072971.5000000009
decision_type=2 2 2
left_child=2 -2 -1
right_child=1 -3 -4
leaf_value=-0.0055958328063920515 0.21178265395132145 -0.11343176107492643 -0.30159531700403641
leaf_weight=1364.5973064690177 230.31602439735889 128.38321083406481 87.203704690622544
leaf_count=133175 13099 2371 5355
internal_value=0 0.0953841 -0.0233753
internal_weight=0 358.699 1451.8
internal_count=154000 15470 138530
shrinkage=0.4


Tree=75
num_leaves=4
num_cat=0
split_feature=9 14 0
split_gain=25.3126 24.4961 0.889055
threshold=1.0000000180025095e-35 1.0000000180025095e-35 417.50000000000006
decision_type=2 2 2
left_child=1 -1 -2
right_child=2 -3 -4
leaf_value=0.0098174250068444012 -1.1798222661401772 -0.46439343370232972 -0.44786694773860475
leaf_weight=1758.1848673161826 0.26931253820648393 17.603600426968342 18.799866058116873
leaf_count=146667 2 2897 4434
internal_value=0 0.00511652 -0.458204
internal_weight=0 1775.79 19.0692
internal_count=154000 149564 4436
shrinkage=0.4


Tree=76
num_leaves=4
num_cat=0
split_feature=4 6 3
split_gain=19.1735 139.295 99.7778
threshold=1.5000000000000002 1.0000000180025095e-35 2.5000000000000004
decision_type=2 8 2
left_child=2 -2 -1
right_child=1 -3 -4
leaf_value=0.06113906241322719 -0.38605483280756753 0.066899264071595632 -0.34113094713835834
leaf_weight=1144.3202190412126 152.99511571245961 374.60454142756117 107.9626061358274
leaf_count=72308 2811 71734 7147
internal_value=0 -0.0644499 0.0264583
internal_weight=0 527.6 1252.28
internal_count=154000 74545 79455
shrinkage=0.4


Tree=77
num_leaves=4
num_cat=0
split_feature=11 11 3
split_gain=24.8812 52.899 46.3794
threshold=97619.047619047633 32522.47488101534 1.0000000180025095e-35
decision_type=2 2 2
left_child=1 -1 -2
right_child=2 -3 -4
leaf_value=0.0018801263225973032 0.4630107204403755 -0.42550511345374914 -0.26098005441327721
leaf_weight=1626.919286678861 45.855337545275773 47.695470355077987 20.480297396468501
leaf_count=149889 1272 2087 752
internal_value=0 -0.0102924 0.239488
internal_weight=0 1674.61 66.3356
internal_count=154000 151976 2024
shrinkage=0.4


Tree=78
num_leaves=4
num_cat=0
split_feature=6 0 5
split_gain=23.0751 76.2199 50.9469
threshold=2446.8708728698725 39381.000000000007 2933.0000000000005
decision_type=10 2 2
left_child=2 -2 -1
right_child=1 -3 -4
leaf_value=0.011898745110910129 0.33063707151419047 -0.31982902207241798 2.225331584000628
leaf_weight=1573.6276062051322 38.991786668384407 110.52041083036909 1.6655765239847813
leaf_count=107241 13924 32782 53
internal_value=0 -0.150192 0.014239
internal_weight=0 149.512 1575.29
internal_count=154000 46706 107294
shrinkage=0.4


Tree=79
num_leaves=4
num_cat=0
split_feature=5 5 0
split_gain=18.1445 65.0622 56.6179
threshold=973.50000000000011 913.50000000000011 5867.5000000000009
decision_type=2 2 2
left_child=1 -1 -2
right_child=2 -3 -4
leaf_value=-0.010056329270493693 0.39975203891712696 0.35594836215199355 -0.33812453746814497
leaf_weight=1529.2712999856042 21.499685493297875 81.869883596285945 73.581766618444817
leaf_count=129309 397 6338 17956
internal_value=0 0.00854214 -0.171277
internal_weight=0 1611.14 95.0815
internal_count=154000 135647 18353
shrinkage=0.4


Tree=80
num_leaves=4
num_cat=0
split_feature=16 16 16
split_gain=20.7532 54.2564 51.5072
threshold=1310272.0000000002 27321.500000000004 2724208.1250000005
decision_type=2 2 2
left_child=1 -1 -2
right_child=2 -3 -4
leaf_value=0.0053047643143272934 1.5326674754499856 -0.4353808578127944 0.10910912807813455
leaf_weight=1593.8260739635505 4.7428695070375388 45.990391783714585 28.522872263807585
leaf_count=144278 308 8229 1185
internal_value=0 -0.00705473 0.312073
internal_weight=0 1639.82 33.2657
internal_count=154000 152507 1493
shrinkage=0.4


Tree=81
num_leaves=4
num_cat=0
split_feature=3 1 0
split_gain=17.5963 23.5352 0.20978
threshold=5399.0000000000009 11.500000000000002 56476.500000000007
decision_type=2 2 2
left_child=1 -1 -2
right_child=2 -3 -4
leaf_value=0.0034927868500883898 0.64004282015193614 -0.28671037449224873 0.51368877153411607
leaf_weight=1609.9838918794328 4.1058730320073646 45.990186820488589 4.3084140866994858
leaf_count=127206 21 26748 25
internal_value=0 -0.00456682 0.575345
internal_weight=0 1655.97 8.41429
internal_count=154000 153954 46
shrinkage=0.4


Tree=82
num_leaves=4
num_cat=0
split_feature=2 2 4
split_gain=17.8383 67.4603 64.1262
threshold=92830.000000000015 1078002.0000000002 1.0000000180025095e-35
decision_type=2 2 2
left_child=2 -2 -1
right_child=1 -3 -4
leaf_value=-0.40049738629420162 -0.19560424182281103 0.038593729284919082 0.073371051389078998
leaf_weight=48.787241032330826 296.25563353873167 586.13035715348815 720.19092828880741
leaf_count=10096 10710 53550 79644
internal_value=0 -0.0400368 0.0433068
internal_weight=0 882.386 768.978
internal_count=154000 64260 89740
shrinkage=0.4


Tree=83
num_leaves=4
num_cat=0
split_feature=15 11 8
split_gain=20.1726 46.747 38.666
threshold=1.0000000180025095e-35 1764.1871563440195 666416.98214285728
decision_type=2 2 2
left_child=1 -1 -2
right_child=2 -3 -4
leaf_value=0.015347321763718431 -0.0055987407355515932 0.37417161859082204 -0.23660727099596382
leaf_weight=760.68578314254216 653.153954409981 62.894252115407767 140.94622877400616
leaf_count=48091 90664 7122 8123
internal_value=0 0.0427496 -0.0466008
internal_weight=0 823.58 794.1
internal_count=154000 55213 98787
shrinkage=0.4


Tree=84
num_leaves=4
num_cat=0
split_feature=2 0 4
split_gain=17.8524 50.3256 31.5408
threshold=345.50000000000006 49452.500000000007 1.5000000000000002
decision_type=2 2 2
left_child=1 -1 -2
right_child=2 -3 -4
leaf_value=0.094909892690429098 0.05480993355235917 -0.29737957061929959 -0.076484654015380724
leaf_weight=100.48408327050471 985.01859199797582 109.16915454087142 416.55217210508681
leaf_count=11210 60941 10063 71786
internal_value=0 -0.10936 0.0157887
internal_weight=0 209.653 1401.57
internal_count=154000 21273 132727
shrinkage=0.4


Tree=85
num_leaves=4
num_cat=0
split_feature=0 4 11
split_gain=19.606 47.6372 34.6678
threshold=51563.500000000007 1.0000000180025095e-35 0.045792635134282382
decision_type=2 2 2
left_child=1 -1 -2
right_child=2 -3 -4
leaf_value=-0.22847614200125854 0.17558139779921506 0.0067447920106403526 -0.0097873956614065484
leaf_weight=174.53009493802631 230.75425690080635 653.82030775661246 537.29479753089913
leaf_count=11448 6342 73843 62367
internal_value=0 -0.0428153 0.0459052
internal_weight=0 828.35 768.049
internal_count=154000 85291 68709
shrinkage=0.4


Tree=86
num_leaves=4
num_cat=0
split_feature=14 9 0
split_gain=17.3816 15.2199 0.082574
threshold=1.0000000180025095e-35 1.0000000180025095e-35 48849.000000000007
decision_type=2 2 2
left_child=1 -1 -2
right_child=2 -3 -4
leaf_value=0.0071331213802101169 -0.41617255360636751 -0.43563688649920929 -0.47903723618887661
leaf_weight=1542.9616102408886 5.9844355193905319 12.522309742346577 7.5744391693866895
leaf_count=146667 2874 4386 73
internal_value=0 0.00356863 -0.451291
internal_weight=0 1555.48 13.5589
internal_count=154000 151053 2947
shrinkage=0.4


Tree=87
num_leaves=4
num_cat=0
split_feature=13 0 4
split_gain=18.2773 44.2026 35.6927
threshold=1.0000000180025095e-35 61806.500000000007 6.5000000000000009
decision_type=2 2 2
left_child=2 -2 -1
right_child=1 -3 -4
leaf_value=-0.0043790655940699752 0.16883367349534187 -0.77543043050167759 -0.372978238933446
leaf_weight=1344.4066172421742 162.51309437734812 8.3389811683446151 43.389616974133332
leaf_count=114865 20008 538 18589
internal_value=0 0.122746 -0.0159034
internal_weight=0 170.852 1387.8
internal_count=154000 20546 133454
shrinkage=0.4


Tree=88
num_leaves=4
num_cat=0
split_feature=5 3 5
split_gain=16.9257 37.0223 24.8034
threshold=488.50000000000006 7.5000000000000009 964.50000000000011
decision_type=2 2 2
left_child=1 -1 -2
right_child=2 -3 -4
leaf_value=-0.025593137802166394 0.22432715012491777 0.45892163639154299 -0.077230546261172484
leaf_weight=1331.4737625301132 117.19560696372355 25.720479851336222 69.532743587002187
leaf_count=125911 7759 1714 18616
internal_value=0 -0.016411 0.112035
internal_weight=0 1357.19 186.728
internal_count=154000 127625 26375
shrinkage=0.4


Tree=89
num_leaves=4
num_cat=0
split_feature=6 0 0
split_gain=17.539 38.377 20.5168
threshold=2446.8708728698725 39813.500000000007 33030.500000000007
decision_type=8 2 2
left_child=2 -2 -1
right_child=1 -3 -4
leaf_value=-0.097288445765283574 0.20270279703417723 -0.31349273969413199 0.032465344408772988
leaf_weight=232.80135269659013 33.214513305337562 75.259031268960086 1200.1458066219598
leaf_count=34492 14298 32768 72442
internal_value=0 -0.155434 0.0113851
internal_weight=0 108.474 1432.95
internal_count=154000 47066 106934
shrinkage=0.4


Tree=90
num_leaves=4
num_cat=0
split_feature=0 0 4
split_gain=17.7587 59.3698 45.0066
threshold=417.50000000000006 708.00000000000011 1.5000000000000002
decision_type=2 2 2
left_child=2 -2 -1
right_child=1 -3 -4
leaf_value=-0.37927346722455479 -0.65913423574902374 -0.001632847463693708 0.29873455612857602
leaf_weight=19.555528685575069 22.323976427022217 1398.1783683486537 78.735619318492212
leaf_count=3115 9198 109711 31976
internal_value=0 -0.0119658 0.163841
internal_weight=0 1420.5 98.2911
internal_count=154000 118909 35091
shrinkage=0.4


Tree=91
num_leaves=4
num_cat=0
split_feature=4 6 3
split_gain=15.2679 94.664 75.6154
threshold=1.5000000000000002 1.0000000180025095e-35 2.5000000000000004
decision_type=2 8 2
left_child=2 -2 -1
right_child=1 -3 -4
leaf_value=0.055433730232966411 -0.33733606709856834 0.066408951369015978 -0.34053147190538352
leaf_weight=992.86393570207463 137.75769065032372 285.44636034741814 83.666756199904171
leaf_count=72308 2811 71734 7147
internal_value=0 -0.0650146 0.0246598
internal_weight=0 423.204 1076.53
internal_count=154000 74545 79455
shrinkage=0.4


Tree=92
num_leaves=4
num_cat=0
split_feature=11 2 6
split_gain=16.7729 83.7394 34.9388
threshold=4.2257657658226906 1078002.0000000002 39.256915933994108
decision_type=2 2 10
left_child=1 -1 -2
right_child=2 -3 -4
leaf_value=-0.32813411815879018 0.071444810955844359 0.024951223388331525 -0.1624133380864444
leaf_weight=135.91705981026917 697.45834950816061 513.49752706314166 119.76988756866831
leaf_count=12318 40386 51895 49401
internal_value=0 -0.0489466 0.0371714
internal_weight=0 649.415 817.228
internal_count=154000 64213 89787
shrinkage=0.4


Tree=93
num_leaves=4
num_cat=0
split_feature=8 2 15
split_gain=15.1282 33.9449 22.4877
threshold=40450000.000000007 64885504.500000007 1.0000000180025095e-35
decision_type=2 2 2
left_child=2 -2 -1
right_child=1 -3 -4
leaf_value=0.067920226676378689 -0.27220033808810595 0.18151831127414519 -0.037431960120908707
leaf_weight=607.79662208018101 86.708458085475286 37.921156408392562 694.699347354118
leaf_count=52897 1033 1338 98732
internal_value=0 -0.134147 0.0117296
internal_weight=0 124.63 1302.5
internal_count=154000 2371 151629
shrinkage=0.4


Tree=94
num_leaves=4
num_cat=0
split_feature=5 3 5
split_gain=15.822 34.6828 24.6138
threshold=913.50000000000011 6.5000000000000009 32.500000000000007
decision_type=2 2 2
left_child=2 -2 -1
right_child=1 -3 -4
leaf_value=0.0066725227551649932 0.2992651155843184 -0.13833965963429323 -0.1602581564537352
leaf_weight=1135.7542376029908 77.473878231413437 46.293588101107161 161.41273379631298
leaf_count=62303 6747 17944 67006
internal_value=0 0.135585 -0.0140995
internal_weight=0 123.767 1297.17
internal_count=154000 24691 129309
shrinkage=0.4


Tree=95
num_leaves=4
num_cat=0
split_feature=0 2 0
split_gain=16.1416 38.8414 38.0778
threshold=417.50000000000006 221.50000000000003 708.00000000000011
decision_type=2 2 2
left_child=1 -1 -2
right_child=2 -3 -4
leaf_value=-0.52018035521279571 -0.63416795776243218 0.26936392293556138 -0.0039032634064493886
leaf_weight=11.471353229658005 15.52099451940512 76.133725766945645 1295.2169125212008
leaf_count=1498 9198 33593 109711
internal_value=0 0.165978 -0.0113665
internal_weight=0 87.6051 1310.74
internal_count=154000 35091 118909
shrinkage=0.4


Tree=96
num_leaves=4
num_cat=0
split_feature=0 0 4
split_gain=11.0559 36.7105 25.4273
threshold=2983.0000000000005 19960.000000000004 1.5000000000000002
decision_type=2 2 2
left_child=2 -2 -1
right_child=1 -3 -4
leaf_value=-0.12483910798127339 -0.25319748113086843 0.0079130384431095168 0.26482954316213791
leaf_weight=42.876827627193606 92.963610327911056 1175.655696675615 71.429537177374996
leaf_count=11886 2597 106676 32841
internal_value=0 -0.011221 0.118663
internal_weight=0 1268.62 114.306
internal_count=154000 109273 44727
shrinkage=0.4


Tree=97
num_leaves=4
num_cat=0
split_feature=1 2 4
split_gain=10.4489 10.9348 0.0591387
threshold=1.0000000180025095e-35 60423399.500000007 2.5000000000000004
decision_type=2 2 2
left_child=2 -2 -1
right_child=1 -3 -4
leaf_value=-0.42420527723607498 -0.0079082153862675194 0.12969970223380514 -0.51015369544408673
leaf_weight=1.6926541497850838 1261.0411229217232 99.698904598478066 5.2656005155295134
leaf_count=1329 144753 7882 36
internal_value=0 0.00217406 -0.489246
internal_weight=0 1360.74 6.95825
internal_count=154000 152635 1365
shrinkage=0.4


Tree=98
num_leaves=4
num_cat=0
split_feature=4 0 12
split_gain=10.3297 71.2317 56.0237
threshold=1.5000000000000002 38380.000000000007 1.0000000180025095e-35
decision_type=2 2 2
left_child=2 -2 -1
right_child=1 -3 -4
leaf_value=0.033415512841726856 0.18196833208573707 -0.17843828090094827 -0.74353326108890772
leaf_weight=966.43591520611301 133.1931139877031 257.12537504201828 15.081063910600617
leaf_count=79035 36216 38329 420
internal_value=0 -0.0554524 0.0214777
internal_weight=0 390.318 981.517
internal_count=154000 74545 79455
shrinkage=0.4


Tree=99
num_leaves=4
num_cat=0
split_feature=5 5 2
split_gain=15.6068 41.0838 21.7475
threshold=488.50000000000006 32.500000000000007 82710786.500000015
decision_type=2 2 2
left_child=1 -1 -2
right_child=2 -3 -4
leaf_value=0.0042686563893586911 0.16513042927849567 -0.28702179327528266 -0.33049205566511486
leaf_weight=1109.3794249129926 145.00445308502094 83.28690408823627 15.69897596789451
leaf_count=62303 22013 65322 4362
internal_value=0 -0.0160729 0.116714
internal_weight=0 1192.67 160.703
internal_count=154000 127625 26375
shrinkage=0.4


Tree=100
num_leaves=4
num_cat=0
split_feature=13 15 7
split_gain=12.1587 36.5635 28.639
threshold=1.0000000180025095e-35 1.0000000180025095e-35 422222.22222222231
decision_type=2 2 2
left_child=2 -2 -1
right_child=1 -3 -4
leaf_value=-0.0073399569771166297 0.37751735546419896 -0.034657081217940408 -0.56901513485952415
leaf_weight=1169.8699341679378 52.144036964752701 101.3976077937501 14.707284836496681
leaf_count=132017 16734 3812 1437
internal_value=0 0.105321 -0.0143135
internal_weight=0 153.542 1184.58
internal_count=154000 20546 133454
shrinkage=0.4


Tree=101
num_leaves=4
num_cat=0
split_feature=11 11 0
split_gain=12.4171 40.4325 19.6364
threshold=67816.09195402301 32522.47488101534 38380.000000000007
decision_type=2 2 2
left_child=1 -1 -2
right_child=2 -3 -4
leaf_value=0.0036187339025926476 0.5452842171698683 -0.45165856074439897 0.013168109284563171
leaf_weight=1251.3068335606067 16.971591499857553 32.008706564952263 32.051446286636789
leaf_count=149889 1358 1609 1144
internal_value=0 -0.00773688 0.197385
internal_weight=0 1283.32 49.023
internal_count=154000 151498 2502
shrinkage=0.4


Tree=102
num_leaves=4
num_cat=0
split_feature=10 0 4
split_gain=10.8903 34.3911 14.3538
threshold=1.0000000180025095e-35 53904.500000000007 1.5000000000000002
decision_type=2 2 2
left_child=2 -2 -1
right_child=1 -3 -4
leaf_value=0.021681618199842774 0.78349275173384425 -0.85570839120294639 -0.072402370030679231
leaf_weight=958.40829719046735 8.5612706781257071 2.6917269831154149 355.76017296167595
leaf_count=79249 341 62 74348
internal_value=0 0.391394 -0.00378797
internal_weight=0 11.253 1314.17
internal_count=154000 403 153597
shrinkage=0.4


Tree=103
num_leaves=4
num_cat=0
split_feature=0 0 13
split_gain=10.9259 24.3577 11.5011
threshold=58058.500000000007 61590.500000000007 1.0000000180025095e-35
decision_type=2 2 2
left_child=2 -2 -1
right_child=1 -3 -4
leaf_value=-0.031283854272700515 0.19072360613677131 -0.08034588290588221 0.096883089023675872
leaf_weight=971.6164438641481 131.16997998217013 89.044535829179296 126.62247956828946
leaf_count=104534 16061 14188 19217
internal_value=0 0.0811157 -0.0165067
internal_weight=0 220.215 1098.24
internal_count=154000 30249 123751
shrinkage=0.4


Tree=104
num_leaves=4
num_cat=0
split_feature=9 14 0
split_gain=11.6768 10.3889 0.952213
threshold=1.0000000180025095e-35 1.0000000180025095e-35 417.50000000000006
decision_type=2 2 2
left_child=1 -1 -2
right_child=2 -3 -4
leaf_value=0.0061784009565160874 -1.2312650713094184 -0.44747097620170595 -0.43659591455158275
leaf_weight=1297.1703568534708 0.24826364591723127 8.1276161048508566 8.5494989125981533
leaf_count=146667 2 2897 4434
internal_value=0 0.00335369 -0.459021
internal_weight=0 1305.3 8.79776
internal_count=154000 149564 4436
shrinkage=0.4


Tree=105
num_leaves=4
num_cat=0
split_feature=7 11 4
split_gain=8.20048 52.294 30.0854
threshold=38.52822192891297 18.450014338013837 1.0000000180025095e-35
decision_type=2 2 2
left_child=1 -1 -2
right_child=2 -3 -4
leaf_value=-0.011547560559741045 -0.36657697169891817 -0.70670624859352738 0.055883393409709242
leaf_weight=709.01554931485032 28.356929834794755 17.747662393011979 552.02570654299677
leaf_count=63035 10087 595 80283
internal_value=0 -0.0285234 0.0352424
internal_weight=0 726.763 580.383
internal_count=154000 63630 90370
shrinkage=0.4


Tree=106
num_leaves=4
num_cat=0
split_feature=4 3 0
split_gain=8.22434 37.2748 25.0895
threshold=3.5000000000000004 2.5000000000000004 38380.000000000007
decision_type=2 2 2
left_child=1 -1 -2
right_child=2 -3 -4
leaf_value=0.0074342913879877895 0.26025129899778005 -0.26557937003772308 -0.024979810421194636
leaf_weight=979.61500321092012 73.848348327402789 87.130787522746232 148.69029047560758
leaf_count=80883 23830 19052 30235
internal_value=0 -0.0148652 0.0696727
internal_weight=0 1066.75 222.539
internal_count=154000 99935 54065
shrinkage=0.4


Tree=107
num_leaves=4
num_cat=0
split_feature=0 8 4
split_gain=12.1869 29.4521 29.2052
threshold=50966.500000000007 56319164.500000007 1.0000000180025095e-35
decision_type=2 2 2
left_child=2 -2 -1
right_child=1 -3 -4
leaf_value=-0.22271491637045485 0.024338572262392513 0.62337063769653511 0.0014380703303397166
leaf_weight=115.61170975757034 664.9580812785166 13.396710259024983 475.54681005926261
leaf_count=10475 73900 94 69531
internal_value=0 0.0361688 -0.0423991
internal_weight=0 678.355 591.159
internal_count=154000 73994 80006
shrinkage=0.4


Tree=108
num_leaves=4
num_cat=0
split_feature=3 6 7
split_gain=9.19766 9.05779 0.128823
threshold=5399.0000000000009 3404.4960348994223 1014.2722649773251
decision_type=2 10 2
left_child=1 -1 -2
right_child=2 -3 -4
leaf_value=0.0051382319574889259 0.55867780249253007 -0.14803265684802377 0.4397418874000793
leaf_weight=1181.8329572113307 2.9863407853990784 65.1784459895498 2.8454157155938447
leaf_count=108452 23 45502 23
internal_value=0 -0.00286766 0.500647
internal_weight=0 1247.01 5.83176
internal_count=154000 153954 46
shrinkage=0.4


Tree=109
num_leaves=4
num_cat=0
split_feature=11 13 4
split_gain=7.4483 27.6586 12.632
threshold=10050.505050505051 1.0000000180025095e-35 1.5000000000000002
decision_type=2 2 2
left_child=2 -2 -1
right_child=1 -3 -4
leaf_value=0.035612717734503224 -0.17693869106488075 0.41054655685465535 -0.058496657597837488
leaf_weight=820.50989239849218 96.590685530016799 14.784634341175886 316.12852403623583
leaf_count=75368 5197 1555 71880
internal_value=0 -0.0989523 0.00943847
internal_weight=0 111.375 1136.64
internal_count=154000 6752 147248
shrinkage=0.4


Tree=110
num_leaves=4
num_cat=0
split_feature=5 4 3
split_gain=10.3583 22.8672 19.4336
threshold=488.50000000000006 5.5000000000000009 7.5000000000000009
decision_type=2 2 2
left_child=2 -2 -1
right_child=1 -3 -4
leaf_value=-0.022049654322959619 0.2425549491126828 -0.064147260709630824 0.3376963126529432
leaf_weight=1050.0250370077151 81.678268577619747 74.256906498930675 24.588628853262207
leaf_count=125911 6555 19820 1714
internal_value=0 0.0965022 -0.0138182
internal_weight=0 155.935 1074.61
internal_count=154000 26375 127625
shrinkage=0.4


Tree=111
num_leaves=4
num_cat=0
split_feature=16 16 3
split_gain=8.20798 8.46088 2.28173
threshold=9144141.5000000019 3191754.0000000005 14.500000000000002
decision_type=2 2 2
left_child=1 -1 -2
right_child=2 -3 -4
leaf_value=-0.00079440465686020215 -0.60219380846769899 0.33439129102232651 0.11303946253192745
leaf_weight=1209.9775925062527 4.5770434957767057 12.170572469224679 0.84548507323052025
leaf_count=153123 61 484 332
internal_value=0 0.00254349 -0.490674
internal_weight=0 1222.15 5.42253
internal_count=154000 153607 393
shrinkage=0.4


Tree=112
num_leaves=4
num_cat=0
split_feature=2 8 2
split_gain=8.76083 38.825 28.423
threshold=47822263.500000007 19850000.000000004 60423399.500000007
decision_type=2 2 2
left_child=1 -1 -2
right_child=2 -3 -4
leaf_value=-0.0036867308215542574 -0.30449212129389708 0.36688253337302013 0.054127583127511272
leaf_weight=1032.5626903801935 59.586340155763992 47.309547370357905 86.974880904222573
leaf_count=141523 1785 1767 8925
internal_value=0 0.012548 -0.0916738
internal_weight=0 1079.87 146.561
internal_count=154000 143290 10710
shrinkage=0.4


Tree=113
num_leaves=4
num_cat=0
split_feature=16 16 6
split_gain=9.00906 20.617 15.8859
threshold=11191.333333333336 239.50000000000003 3.0043847756717241
decision_type=2 2 10
left_child=1 -1 -2
right_child=2 -3 -4
leaf_value=0.0020345881710050321 -0.49026820781060643 0.47721986409500983 -0.027768195160722854
leaf_weight=1128.2389353658659 16.107619859175543 14.800603960597071 45.300441009810925
leaf_count=142883 1011 540 9566
internal_value=0 0.00818751 -0.149084
internal_weight=0 1143.04 61.4081
internal_count=154000 143423 10577
shrinkage=0.4


Tree=114
num_leaves=4
num_cat=0
split_feature=4 6 6
split_gain=7.76485 55.9866 52.4794
threshold=1.5000000000000002 1.0000000180025095e-35 1.0000000180025095e-35
decision_type=2 8 8
left_child=1 -1 -2
right_child=2 -3 -4
leaf_value=0.046184238331227777 -0.28174755921184985 -0.37744152168921752 0.057663977617577855
leaf_weight=810.43845171302382 107.56428062493799 53.192150771301272 226.09475767008311
leaf_count=53061 2811 26394 71734
internal_value=0 0.0200926 -0.0517548
internal_weight=0 863.631 333.659
internal_count=154000 79455 74545
shrinkage=0.4


Tree=115
num_leaves=4
num_cat=0
split_feature=0 0 7
split_gain=8.53222 23.8076 13.6766
threshold=2983.0000000000005 3389.5000000000005 142.6991546891214
decision_type=2 2 2
left_child=2 -2 -1
right_child=1 -3 -4
leaf_value=0.24146834994953614 -0.33908684324803096 2.7505792249917845e-05 -0.057923122912843711
leaf_weight=56.334893533224658 34.210820091415371 1042.780550075785 43.083150821518302
leaf_count=25624 845 108428 19103
internal_value=0 -0.0107445 0.111726
internal_weight=0 1076.99 99.418
internal_count=154000 109273 44727
shrinkage=0.4


Tree=116
num_leaves=4
num_cat=0
split_feature=3 6 6
split_gain=8.96296 57.1569 20.0862
threshold=2.5000000000000004 1.0000000180025095e-35 1.0000000180025095e-35
decision_type=2 8 10
left_child=2 -2 -1
right_child=1 -3 -4
leaf_value=0.035243619662806126 -0.43253144726334813 0.033308616878103964 -0.18109936731218915
leaf_weight=845.87283168370607 53.862401192789257 193.66782011112167 74.730984241610486
leaf_count=52611 3621 67101 30667
internal_value=0 -0.0680579 0.0176817
internal_weight=0 247.53 920.604
internal_count=154000 70722 83278
shrinkage=0.4


Tree=117
num_leaves=4
num_cat=0
split_feature=10 0 5
split_gain=8.08217 17.1987 8.15022
threshold=1.0000000180025095e-35 53904.500000000007 973.50000000000011
decision_type=2 2 2
left_child=2 -2 -1
right_child=1 -3 -4
leaf_value=0.0033625766953206239 0.64164008317334753 -0.67782488521181494 -0.14972651289371799
leaf_weight=1074.1867212881396 7.5420256274198589 1.9996606000459278 58.681389901158582
leaf_count=135257 341 62 18340
internal_value=0 0.365119 -0.00456728
internal_weight=0 9.54169 1132.87
internal_count=154000 403 153597
shrinkage=0.4


Tree=118
num_leaves=4
num_cat=0
split_feature=14 11 2
split_gain=7.84852 7.1742 0.0118712
threshold=1.0000000180025095e-35 4.0955791150564886 18049387.500000004
decision_type=2 2 2
left_child=1 -1 -2
right_child=2 -3 -4
leaf_value=-0.035091643726050503 -0.43500774496341243 0.029273256041390073 -0.51117183663802634
leaf_weight=486.80124426036537 6.1601959120571328 643.11941798454336 0.34580582270018556
leaf_count=63545 2925 87508 22
internal_value=0 0.00154307 -0.439056
internal_weight=0 1129.92 6.506
internal_count=154000 151053 2947
shrinkage=0.4


Tree=119
num_leaves=4
num_cat=0
split_feature=8 0 11
split_gain=8.79339 22.1434 18.2145
threshold=1965200.1041666667 3389.5000000000005 3.9349242327166012
decision_type=2 2 2
left_child=2 -2 -1
right_child=1 -3 -4
leaf_value=-0.11675523803427955 -0.24169052436070443 0.11107702458820586 0.014644023766434328
leaf_weight=228.47470901829865 32.72790225876696 218.82878341812926 646.15926427846193
leaf_count=49436 2307 11394 90863
internal_value=0 0.0651814 -0.0196805
internal_weight=0 251.557 874.634
internal_count=154000 13701 140299
shrinkage=0.4


Tree=120
num_leaves=4
num_cat=0
split_feature=5 5 5
split_gain=6.55719 22.827 18.0695
threshold=913.50000000000011 964.50000000000011 662.50000000000011
decision_type=2 2 2
left_child=2 -2 -1
right_child=1 -3 -4
leaf_value=-0.0034852617347027113 0.32127894868321721 -0.068918181548479646 -0.43594627292159088
leaf_weight=999.54566928833401 41.956798471248476 56.013236065551609 15.701483077398732
leaf_count=128048 6075 18616 1261
internal_value=0 0.0981882 -0.0101736
internal_weight=0 97.97 1015.25
internal_count=154000 24691 129309
shrinkage=0.4


Tree=121
num_leaves=4
num_cat=0
split_feature=0 0 11
split_gain=6.94554 46.12 41.5908
threshold=5867.5000000000009 14383.000000000002 1.0000000180025095e-35
decision_type=2 2 2
left_child=2 -2 -1
right_child=1 -3 -4
leaf_value=-0.45534055726062672 -0.75881022827434652 -0.0022652551867915469 0.16404042149774825
leaf_weight=20.05560874795782 13.072389181262336 937.32383308870942 128.39452900033672
leaf_count=7246 876 107114 38764
internal_value=0 -0.0126713 0.0803621
internal_weight=0 950.396 148.45
internal_count=154000 107990 46010
shrinkage=0.4


Tree=122
num_leaves=4
num_cat=0
split_feature=15 11 8
split_gain=8.24686 20.2379 17.4791
threshold=1.0000000180025095e-35 1764.1871563440195 369.16666666666669
decision_type=2 2 2
left_child=1 -1 -2
right_child=2 -3 -4
leaf_value=0.010265339623852295 -0.16638805816788446 0.28808302370875943 0.003788079111011033
leaf_weight=505.74414176378093 126.40267257222706 45.748350215543951 409.17060342607738
leaf_count=48091 12889 7122 85898
internal_value=0 0.0333113 -0.0363758
internal_weight=0 551.492 535.573
internal_count=154000 55213 98787
shrinkage=0.4


Tree=123
num_leaves=4
num_cat=0
split_feature=4 0 6
split_gain=9.06611 40.3977 35.2502
threshold=1.5000000000000002 708.00000000000011 3.0043847756717241
decision_type=2 2 8
left_child=1 -1 -2
right_child=2 -3 -4
leaf_value=-0.5391547129140748 -0.24088328111667492 0.036979603610857441 0.043284653338152082
leaf_weight=19.982320370542197 109.23837849519803 763.75744052726816 193.67637715860928
leaf_count=11758 3126 67697 71419
internal_value=0 0.0222904 -0.0591932
internal_weight=0 783.74 302.915
internal_count=154000 79455 74545
shrinkage=0.4


Tree=124
num_leaves=4
num_cat=0
split_feature=0 0 11
split_gain=6.54601 26.8482 25.4905
threshold=5867.5000000000009 14383.000000000002 1.0000000180025095e-35
decision_type=2 2 2
left_child=2 -2 -1
right_child=1 -3 -4
leaf_value=-0.44672898074000833 -0.67464719056005507 -0.0055904146451725822 0.13719971615278953
leaf_weight=13.235983727496402 9.6968091361453599 926.83831308167873 124.20229052404025
leaf_count=7246 876 107114 38764
internal_value=0 -0.0125178 0.0809645
internal_weight=0 936.535 137.438
internal_count=154000 107990 46010
shrinkage=0.4


Tree=125
num_leaves=4
num_cat=0
split_feature=8 8 0
split_gain=10.5395 20.8698 16.6848
threshold=56319164.500000007 54322155.000000007 3389.5000000000005
decision_type=2 2 2
left_child=1 -1 -2
right_child=2 -3 -4
leaf_value=0.001838560452867815 -0.31658075797524432 -0.38577495246544713 0.49955970480597439
leaf_weight=1023.04195256719 5.4579127806923706 22.718516086274121 15.085190104146021
leaf_count=152222 1067 593 118
internal_value=0 -0.00658211 0.282727
internal_weight=0 1045.76 20.5431
internal_count=154000 152815 1185
shrinkage=0.4


Tree=126
num_leaves=4
num_cat=0
split_feature=7 8 15
split_gain=7.74694 50.5709 26.0486
threshold=1.900105665756892 1000117.0000000001 1.0000000180025095e-35
decision_type=2 2 2
left_child=2 -2 -1
right_child=1 -3 -4
leaf_value=0.13767985106972927 -0.0071224320507037239 -0.7202152175680997 -0.11438723128135808
leaf_weight=197.437301210177 744.35505905344962 16.259734362683957 98.230783948320891
leaf_count=11439 121716 166 20679
internal_value=0 -0.0223663 0.0539348
internal_weight=0 760.615 295.668
internal_count=154000 121882 32118
shrinkage=0.4


Tree=127
num_leaves=4
num_cat=0
split_feature=9 8 0
split_gain=6.86328 7.04106 0.798603
threshold=1.0000000180025095e-35 40450000.000000007 417.50000000000006
decision_type=2 2 2
left_child=1 -1 -2
right_child=2 -3 -4
leaf_value=0.010501823064791221 -1.1843695470525579 -0.11587065052461139 -0.41890797766906457
leaf_weight=971.1154095953425 0.2276947041973586 76.068523596989962 5.1612620585569733
leaf_count=147195 2 2369 4434
internal_value=0 0.001322 -0.45125
internal_weight=0 1047.18 5.38896
internal_count=154000 149564 4436
shrinkage=0.4


Tree=128
num_leaves=4
num_cat=0
split_feature=5 2 0
split_gain=6.53175 8.45264 0.885739
threshold=4063.0000000000005 64885504.500000007 37944.500000000007
decision_type=2 2 2
left_child=1 -1 -2
right_child=2 -3 -4
leaf_value=-0.0076995058711238759 -0.97788676077372616 0.15287047098058751 -0.47168620791320043
leaf_weight=986.10629395555202 0.74885991960763876 55.401636139660923 2.1153990323655307
leaf_count=146239 5 7699 57
internal_value=0 0.000841802 -0.604032
internal_weight=0 1041.51 2.86426
internal_count=154000 153938 62
shrinkage=0.4


Tree=129
num_leaves=4
num_cat=0
split_feature=2 7 7
split_gain=6.17245 23.1566 9.99184
threshold=10.500000000000002 422222.22222222231 26402.92784942489
decision_type=2 2 2
left_child=1 -1 -2
right_child=2 -3 -4
leaf_value=0.61035113206894742 0.0039899720867401425 -0.090098519246855358 -0.16209325735553176
leaf_weight=12.055677556644914 952.80251050433424 20.213040108654702 61.711924226356928
leaf_count=515 143273 2925 7287
internal_value=0 0.171591 -0.00611271
internal_weight=0 32.2687 1014.51
internal_count=154000 3440 150560
shrinkage=0.4


Tree=130
num_leaves=4
num_cat=0
split_feature=3 6 6
split_gain=6.3271 36.9024 13.3663
threshold=2.5000000000000004 1.0000000180025095e-35 16.807825382925301
decision_type=2 8 10
left_child=2 -2 -1
right_child=1 -3 -4
leaf_value=0.027306932041453649 -0.41135849350867482 0.017002209493835421 -0.20396126989443825
leaf_weight=786.0971437498024 39.393255942207865 175.67581445908405 42.128181636833801
leaf_count=52955 3621 67101 30323
internal_value=0 -0.0614587 0.0155433
internal_weight=0 215.069 828.225
internal_count=154000 70722 83278
shrinkage=0.4


Tree=131
num_leaves=4
num_cat=0
split_feature=0 14 8
split_gain=5.82317 5.25692 4.60691
threshold=65403.500000000007 1.0000000180025095e-35 50677.000000000007
decision_type=2 2 2
left_child=1 -1 -2
right_child=2 -3 -4
leaf_value=0.0023956518667414863 -0.96904440530075342 -0.42881264897786908 0.11590049299731653
leaf_weight=1018.0029782551155 1.7642688812370573 4.5437137623152912 0.97075784151820688
leaf_count=150629 307 2947 117
internal_value=0 0.000479566 -0.583959
internal_weight=0 1022.55 2.73503
internal_count=154000 153576 424
shrinkage=0.4


Tree=132
num_leaves=4
num_cat=0
split_feature=2 2 2
split_gain=5.00796 19.8304 17.7523
threshold=47822263.500000007 60423399.500000007 11868650.500000002
decision_type=2 2 2
left_child=2 -2 -1
right_child=1 -3 -4
leaf_value=-0.0064773101182693128 -0.26870868257840802 0.061690348631038852 0.20644159335014101
leaf_weight=837.02054702427097 50.296246987104297 68.855363578537975 67.722788869942747
leaf_count=139125 1785 8925 4165
internal_value=0 -0.0777776 0.00946032
internal_weight=0 119.152 904.743
internal_count=154000 10710 143290
shrinkage=0.4


Tree=133
num_leaves=4
num_cat=0
split_feature=16 2 16
split_gain=7.4761 18.4722 17.6551
threshold=11191.333333333336 64885504.500000007 952323.25000000012
decision_type=2 2 2
left_child=1 -1 -2
right_child=2 -3 -4
leaf_value=-0.0022726007224094539 -0.34304340764866031 0.31655419894463233 0.099330819760359901
leaf_weight=923.4877597031624 31.447987465253036 30.020768960566784 26.681881417682476
leaf_count=141672 8820 1751 1757
internal_value=0 0.00776551 -0.139992
internal_weight=0 953.509 58.1299
internal_count=154000 143423 10577
shrinkage=0.4


Tree=134
num_leaves=4
num_cat=0
split_feature=4 12 0
split_gain=5.44578 30.9011 20.1168
threshold=1.5000000000000002 1.0000000180025095e-35 38380.000000000007
decision_type=2 2 2
left_child=1 -1 -2
right_child=2 -3 -4
leaf_value=0.029488179286378081 0.091519689259567896 -0.59838343297390273 -0.12487035767740556
leaf_weight=696.27705112530543 107.91257389067056 12.771631988763259 189.35966558790523
leaf_count=79035 36216 420 38329
internal_value=0 0.0181787 -0.0463188
internal_weight=0 709.049 297.272
internal_count=154000 79455 74545
shrinkage=0.4


Tree=135
num_leaves=4
num_cat=0
split_feature=13 2 4
split_gain=6.24988 20.4508 19.3326
threshold=1.0000000180025095e-35 30186.500000000004 6.5000000000000009
decision_type=2 2 2
left_child=2 -2 -1
right_child=1 -3 -4
leaf_value=-0.0024326921234251505 0.4102947217224524 0.0034847657530835078 -0.35825098174423381
leaf_weight=842.69567096228138 24.534812133048717 101.84747117299275 25.161147527629055
leaf_count=114865 13945 6601 18589
internal_value=0 0.0824595 -0.0127487
internal_weight=0 126.382 867.857
internal_count=154000 20546 133454
shrinkage=0.4


Tree=136
num_leaves=4
num_cat=0
split_feature=5 6 17
split_gain=5.45977 18.4743 18.4619
threshold=615.50000000000011 43.974808463048326 5.3033008588991075
decision_type=2 10 2
left_child=1 -1 -2
right_child=2 -3 -4
leaf_value=0.0059691673308489733 0.14250137810198818 -0.21480718713433131 -0.41446930727156411
leaf_weight=810.10734885544571 94.053242601941747 65.55023461552662 10.594675194256977
leaf_count=59112 20548 68783 5557
internal_value=0 -0.0105578 0.086113
internal_weight=0 875.658 104.648
internal_count=154000 127895 26105
shrinkage=0.4


Tree=137
num_leaves=4
num_cat=0
split_feature=15 0 0
split_gain=4.67099 4.59715 0.859869
threshold=4.5000000000000009 64147.500000000007 63314.500000000007
decision_type=2 2 2
left_child=1 -1 -2
right_child=2 -3 -4
leaf_value=0.0024626746076690451 0.45786536491674773 -0.18736022058691795 1.056070331939553
leaf_weight=948.91166154068958 1.1977595097005167 20.862024326524192 0.56620223820209492
leaf_count=149223 70 4704 3
internal_value=0 -0.00162084 0.649879
internal_weight=0 969.774 1.76396
internal_count=154000 153927 73
shrinkage=0.4


Tree=138
num_leaves=4
num_cat=0
split_feature=0 2 6
split_gain=5.28134 11.5534 6.61514
threshold=58058.500000000007 31804.500000000004 31750000.000000004
decision_type=2 2 8
left_child=2 -2 -1
right_child=1 -3 -4
leaf_value=-0.013670581081602129 0.22287606236529878 -0.010425111855405176 1.6573582585260611
leaf_weight=819.74985794680333 51.258973400885793 100.64646332927521 0.37922084414799329
leaf_count=123031 18220 12029 720
internal_value=0 0.0683 -0.0128979
internal_weight=0 151.905 820.129
internal_count=154000 30249 123751
shrinkage=0.4


Tree=139
num_leaves=4
num_cat=0
split_feature=7 8 2
split_gain=5.17965 30.042 20.0957
threshold=1.9811406798989151 1000117.0000000001 4697270.5000000009
decision_type=2 2 2
left_child=2 -2 -1
right_child=1 -3 -4
leaf_value=0.26103121401797708 -0.0069424685462631634 -0.64135433059037805 -0.0094131884008040508
leaf_weight=55.774840056528319 693.11956354960671 12.152196686307432 207.54344493680537
leaf_count=15238 118695 157 19910
internal_value=0 -0.0178737 0.0478711
internal_weight=0 705.272 263.318
internal_count=154000 118852 35148
shrinkage=0.4


Tree=140
num_leaves=4
num_cat=0
split_feature=2 0 11
split_gain=4.15432 28.7679 10.8214
threshold=253.50000000000003 42193.000000000007 5438.4797397219763
decision_type=2 2 2
left_child=1 -1 -2
right_child=2 -3 -4
leaf_value=0.15724255492447681 0.0089202291916125678 -0.20403284801268021 0.93244596301461513
leaf_weight=58.19286609014442 810.09742708282067 89.509215868067841 2.0351511226530183
leaf_count=10075 137199 6135 591
internal_value=0 -0.0616946 0.0112345
internal_weight=0 147.702 812.133
internal_count=154000 16210 137790
shrinkage=0.4


Tree=141
num_leaves=4
num_cat=0
split_feature=0 5 5
split_gain=4.08495 14.1856 13.1829
threshold=51563.500000000007 2933.0000000000005 1462.5000000000002
decision_type=2 2 2
left_child=2 -2 -1
right_child=1 -3 -4
leaf_value=-0.018031329949521741 0.022192476518868062 0.99588615538851455 -0.63311495301104659
leaf_weight=495.56519057175086 455.58642233780353 2.4066413057153104 5.6386597406744832
leaf_count=85096 68655 54 195
internal_value=0 0.027309 -0.0249512
internal_weight=0 457.993 501.204
internal_count=154000 68709 85291
shrinkage=0.4


Tree=142
num_leaves=4
num_cat=0
split_feature=3 6 7
split_gain=4.1095 6.31946 0.062456
threshold=5399.0000000000009 12427.928742472313 1014.2722649773251
decision_type=2 10 2
left_child=1 -1 -2
right_child=2 -3 -4
leaf_value=0.0041803901350332484 0.49922278576755574 -0.17604936008571301 0.38895966960196904
leaf_weight=921.89318356768536 1.6978689413517707 32.215462647083086 1.5931731881573794
leaf_count=115786 23 38168 23
internal_value=0 -0.00190506 0.445845
internal_weight=0 954.109 3.29104
internal_count=154000 153954 46
shrinkage=0.4


Tree=143
num_leaves=4
num_cat=0
split_feature=13 5 2
split_gain=4.17459 15.4305 15.198
threshold=1.0000000180025095e-35 964.50000000000011 30186.500000000004
decision_type=2 2 2
left_child=1 -1 -2
right_child=2 -3 -4
leaf_value=-0.0021180352453857242 0.40589872940286481 -0.38421579511147202 0.0081477066982970376
leaf_weight=822.0038435378126 18.267500259708754 17.265437432607541 96.914294416302482
leaf_count=116065 13945 17389 6601
internal_value=0 -0.00997855 0.0712299
internal_weight=0 839.269 115.182
internal_count=154000 133454 20546
shrinkage=0.4


Tree=144
num_leaves=4
num_cat=0
split_feature=5 4 5
split_gain=5.05761 11.0947 11.0898
threshold=615.50000000000011 1.5000000000000002 662.50000000000011
decision_type=2 2 2
left_child=1 -1 -2
right_child=2 -3 -4
leaf_value=0.013157542742773934 0.44368515832061156 -0.10100931209738623 0.034683011025257837
leaf_weight=682.59396670768342 12.236462597196804 170.14095644255644 79.652074490700898
leaf_count=79452 153 48443 25952
internal_value=0 -0.00962147 0.0891483
internal_weight=0 852.735 91.8885
internal_count=154000 127895 26105
shrinkage=0.4


Tree=145
num_leaves=4
num_cat=0
split_feature=10 15 7
split_gain=3.90863 8.09562 3.75961
threshold=1.0000000180025095e-35 1.5000000000000002 0.048676407369485281
decision_type=2 2 2
left_child=2 -2 -1
right_child=1 -3 -4
leaf_value=-0.096128193780923479 -0.13799221126885955 0.66726779025400829 0.0046505316148202774
leaf_weight=63.573946058346792 3.8615885717265916 4.1381794611228955 866.35634657130549
leaf_count=2381 311 92 151216
internal_value=0 0.278559 -0.00223913
internal_weight=0 7.99977 929.93
internal_count=154000 403 153597
shrinkage=0.4


Tree=146
num_leaves=4
num_cat=0
split_feature=14 0 7
split_gain=3.60085 3.62978 0.0026429
threshold=1.0000000180025095e-35 62709.500000000007 0.18837843633797868
decision_type=2 2 2
left_child=1 -1 -2
right_child=2 -3 -4
leaf_value=0.0070264520554271948 -0.45581876827828643 -0.11403136344883487 -0.41694045983273159
leaf_weight=888.06625220155752 0.30925860881152578 41.480098076493164 2.9330215579078844
leaf_count=141186 36 9867 2911
internal_value=0 0.00162437 -0.420649
internal_weight=0 929.546 3.24228
internal_count=154000 151053 2947
shrinkage=0.4


Tree=147
num_leaves=4
num_cat=0
split_feature=9 2 0
split_gain=3.48317 3.82056 0.0436035
threshold=1.0000000180025095e-35 59270812.500000007 417.50000000000006
decision_type=2 2 2
left_child=1 -1 -2
right_child=2 -3 -4
leaf_value=-0.0050325932310202708 -0.5962629442512597 0.103228758622427 -0.41290971683286914
leaf_weight=873.2064842230335 0.22393415682022855 55.468507481090455 2.8315279971564622
leaf_count=140788 2 8776 4434
internal_value=0 0.00143371 -0.426348
internal_weight=0 928.675 3.05546
internal_count=154000 149564 4436
shrinkage=0.4


Tree=148
num_leaves=4
num_cat=0
split_feature=16 16 0
split_gain=4.13365 18.1595 9.23257
threshold=5197066.0000000009 3191754.0000000005 55706.500000000007
decision_type=2 2 2
left_child=1 -1 -2
right_child=2 -3 -4
leaf_value=-0.0013781945567255781 -0.012020445526784404 0.79718674627619435 -0.89358832630709628
leaf_weight=918.65588595637735 6.6015165778594547 4.5789130168101329 2.6693679405143484
leaf_count=153123 589 220 68
internal_value=0 0.0025824 -0.26585
internal_weight=0 923.235 9.27088
internal_count=154000 153343 657
shrinkage=0.4


Tree=149
num_leaves=4
num_cat=0
split_feature=5 5 0
split_gain=3.17897 3.8676 0.260288
threshold=4063.0000000000005 2933.0000000000005 43121.000000000007
decision_type=2 2 2
left_child=1 -1 -2
right_child=2 -3 -4
leaf_value=-0.00065120351710287543 -0.74866824602464299 0.45788317259580319 -0.42504515659265929
leaf_weight=927.40030634349955 0.59720049635507066 2.9525597891770294 1.190007306053303
leaf_count=153902 14 36 48
internal_value=0 0.000803997 -0.533185
internal_weight=0 930.353 1.78721
internal_count=154000 153938 62
shrinkage=0.4


Tree=150
num_leaves=4
num_cat=0
split_feature=1 0 4
split_gain=3.01207 3.90784 0.00197306
threshold=1.0000000180025095e-35 417.50000000000006 3.5000000000000004
decision_type=2 2 2
left_child=2 -2 -1
right_child=1 -3 -4
leaf_value=-0.42346816835934881 0.11184472263961315 -0.0050865964313830834 -0.45980558182277886
leaf_weight=2.3710320854037259 48.232132921620064 881.2822411490688 0.26589748309925187
leaf_count=1360 33726 118909 5
internal_value=0 0.000980923 -0.427132
internal_weight=0 929.514 2.63693
internal_count=154000 152635 1365
shrinkage=0.4


Tree=151
num_leaves=4
num_cat=0
split_feature=0 0 5
split_gain=2.94955 9.8215 3.13035
threshold=58058.500000000007 59281.500000000007 1462.5000000000002
decision_type=2 2 2
left_child=2 -2 -1
right_child=1 -3 -4
leaf_value=-0.0069556577900169491 0.23850302459675563 -0.0072895569597409204 -0.24519405070149852
leaf_weight=781.4171443204483 34.531071211470405 105.4234984683762 8.9252638129200914
leaf_count=123385 5646 24603 366
internal_value=0 0.053355 -0.00964606
internal_weight=0 139.955 790.342
internal_count=154000 30249 123751
shrinkage=0.4


Tree=152
num_leaves=4
num_cat=0
split_feature=5 3 5
split_gain=2.95205 13.0449 9.12702
threshold=913.50000000000011 3.5000000000000004 662.50000000000011
decision_type=2 2 2
left_child=2 -2 -1
right_child=1 -3 -4
leaf_value=-0.0019084149950660406 0.28010197107303769 -0.071364496638016639 -0.38496578609545978
leaf_weight=849.33912115445696 29.621732974179395 39.330744189543566 10.070252302211882
leaf_count=128048 6109 18582 1261
internal_value=0 0.0796242 -0.00639694
internal_weight=0 68.9525 859.409
internal_count=154000 24691 129309
shrinkage=0.4


Tree=153
num_leaves=4
num_cat=0
split_feature=3 5 16
split_gain=3.26582 16.7681 11.0344
threshold=4.5000000000000009 32.500000000000007 61442.83333333335
decision_type=2 2 2
left_child=2 -2 -1
right_child=1 -3 -4
leaf_value=-0.0028769256953505573 0.42847115979809774 -0.026368772675099496 -0.54562101584793099
leaf_weight=843.31858286658974 17.044897006331936 54.224341449622287 6.0363708521776962
leaf_count=128671 1126 23450 753
internal_value=0 0.0824117 -0.00673421
internal_weight=0 71.2692 849.355
internal_count=154000 24576 129424
shrinkage=0.4


Tree=154
num_leaves=4
num_cat=0
split_feature=16 2 16
split_gain=4.27222 9.49466 4.54948
threshold=6159862.5000000009 88454534.500000015 993101.07142857159
decision_type=2 2 2
left_child=2 -2 -1
right_child=1 -3 -4
leaf_value=-0.0012429636503152718 -0.15868915039245177 -1.7467636928500672 0.22411576829565544
leaf_weight=896.89399033499012 5.7589812979289254 0.67272591108940094 14.565625669800623
leaf_count=152287 203 366 1144
internal_value=0 -0.324794 0.00235839
internal_weight=0 6.43171 911.46
internal_count=154000 569 153431
shrinkage=0.4


Tree=155
num_leaves=4
num_cat=0
split_feature=11 8 4
split_gain=3.12157 19.3862 16.1712
threshold=9.93859228421117 53798.916666666672 1.5000000000000002
decision_type=2 2 2
left_child=1 -1 -2
right_child=2 -3 -4
leaf_value=-0.32018248788101317 0.063203365013904375 -0.00045149138259544127 -0.11318263901352883
leaf_weight=32.736952156326709 363.15677370903086 414.74837813201646 107.86491298829725
leaf_count=10729 58805 59402 25064
internal_value=0 -0.0238422 0.0228106
internal_weight=0 447.485 471.022
internal_count=154000 70131 83869
shrinkage=0.4


Tree=156
num_leaves=4
num_cat=0
split_feature=5 5 2
split_gain=3.88279 15.2938 9.08307
threshold=488.50000000000006 398.50000000000006 99455.500000000015
decision_type=2 2 2
left_child=1 -1 -2
right_child=2 -3 -4
leaf_value=-0.0033972729885255073 -0.2491910217597707 -0.54258231952377012 0.12305940995045457
leaf_weight=798.52984045013955 11.996175372640208 8.506740122647896 83.406581927799152
leaf_count=124519 2854 3106 23521
internal_value=0 -0.00908067 0.0762517
internal_weight=0 807.037 95.4028
internal_count=154000 127625 26375
shrinkage=0.4


Tree=157
num_leaves=4
num_cat=0
split_feature=11 7 0
split_gain=2.96719 20.5985 17.2991
threshold=0.045792635134282382 0.10943651784582488 50492.500000000007
decision_type=2 2 2
left_child=2 -2 -1
right_child=1 -3 -4
leaf_value=-0.15137152916092034 -1.2320834334967292 -0.0090207318058681037 0.11005158700040654
leaf_weight=54.912223101435643 2.2102977251123539 688.39264721770894 154.31078135935684
leaf_count=10339 79 135438 8144
internal_value=0 -0.0129352 0.041439
internal_weight=0 690.603 209.223
internal_count=154000 135517 18483
shrinkage=0.4


Tree=158
num_leaves=4
num_cat=0
split_feature=11 8 8
split_gain=3.172 15.5943 15.1056
threshold=4.0955791150564886 329765.69157608697 329765.69157608697
decision_type=2 2 2
left_child=1 -1 -2
right_child=2 -3 -4
leaf_value=-0.1963685969246339 0.017653091280903564 0.012825812659576172 3.4310555864972723
leaf_weight=71.588552115836762 545.73267999219684 280.06271893003674 0.20751400182780244
leaf_count=22569 90314 41106 11
internal_value=0 -0.0297616 0.0189505
internal_weight=0 351.651 545.94
internal_count=154000 63675 90325
shrinkage=0.4


Tree=159
num_leaves=4
num_cat=0
split_feature=4 3 0
split_gain=2.90888 20.6399 14.2184
threshold=2.5000000000000004 2.5000000000000004 38380.000000000007
decision_type=2 2 2
left_child=1 -1 -2
right_child=2 -3 -4
leaf_value=0.0033220790381823387 0.19910996705328046 -0.31347559028510841 -0.049159982106438987
leaf_weight=701.80417651655478 60.978709593968972 34.523889787988196 93.499895719208723
leaf_count=79330 35073 7693 31904
internal_value=0 -0.0115315 0.0488418
internal_weight=0 736.328 154.479
internal_count=154000 87023 66977
shrinkage=0.4


Tree=160
num_leaves=4
num_cat=0
split_feature=15 8 6
split_gain=3.59804 10.603 9.38818
threshold=1.0000000180025095e-35 3.166666666666667 1.0000000180025095e-35
decision_type=2 2 10
left_child=2 -2 -1
right_child=1 -3 -4
leaf_value=0.047985893810253227 -0.48814025304054676 -0.017925523500076482 -0.12444759373782908
leaf_weight=378.04807623453468 7.8100772257162694 436.76962786771918 58.311696338189165
leaf_count=21523 273 98514 33690
internal_value=0 -0.0261859 0.0249432
internal_weight=0 444.58 436.36
internal_count=154000 98787 55213
shrinkage=0.4


Tree=161
num_leaves=4
num_cat=0
split_feature=3 1 0
split_gain=3.89706 3.69241 0.0350877
threshold=1286.0000000000002 11.500000000000002 52808.500000000007
decision_type=2 2 2
left_child=1 -1 -2
right_child=2 -3 -4
leaf_value=0.00065359419188143204 0.50086075601818481 -0.23089133259727979 0.412390813658499
leaf_weight=862.81851630994993 1.1047159223930969 11.161978571092048 2.0451376233249903
leaf_count=127195 23 26747 35
internal_value=0 -0.00230357 0.443419
internal_weight=0 873.98 3.14985
internal_count=154000 153942 58
shrinkage=0.4


Tree=162
num_leaves=4
num_cat=0
split_feature=11 11 0
split_gain=3.38736 12.3246 8.85144
threshold=67816.09195402301 40202.020202020212 708.00000000000011
decision_type=2 2 2
left_child=1 -1 -2
right_child=2 -3 -4
leaf_value=0.00093445187029658869 -0.50780136048475011 -0.36101659908585293 0.1764759375032447
leaf_weight=821.70417327590417 3.3146682765534043 15.332826394057291 34.564447089948473
leaf_count=150440 1036 1058 1466
internal_value=0 -0.00569576 0.116597
internal_weight=0 837.037 37.8791
internal_count=154000 151498 2502
shrinkage=0.4


Tree=163
num_leaves=4
num_cat=0
split_feature=2 3 6
split_gain=3.3884 19.0251 12.7779
threshold=92830.000000000015 2.5000000000000004 3.0043847756717241
decision_type=2 2 10
left_child=1 -1 -2
right_child=2 -3 -4
leaf_value=0.043155636135204234 -0.070501318327555393 -0.38117294522040368 0.074328826897775216
leaf_weight=402.18598738158892 307.74631982746553 17.647848086583053 142.6453334590351
leaf_count=73857 10643 15883 53617
internal_value=0 0.0253188 -0.0246316
internal_weight=0 419.834 450.392
internal_count=154000 89740 64260
shrinkage=0.4


Tree=164
num_leaves=4
num_cat=0
split_feature=2 0 0
split_gain=3.98685 16.2692 6.7462
threshold=465.50000000000006 42193.000000000007 84.000000000000014
decision_type=2 2 2
left_child=1 -1 -2
right_child=2 -3 -4
leaf_value=0.09997474088225855 0.19005093439607457 -0.16443740627197004 0.0036305268584515826
leaf_weight=62.083087870525134 32.560306236805445 93.016897514095575 673.77472028984164
leaf_count=10580 33352 13750 96318
internal_value=0 -0.0585991 0.012224
internal_weight=0 155.1 706.335
internal_count=154000 24330 129670
shrinkage=0.4


Tree=165
num_leaves=4
num_cat=0
split_feature=0 7 4
split_gain=5.44272 26.7441 8.46786
threshold=708.00000000000011 229.34652677316282 1.5000000000000002
decision_type=2 2 2
left_child=1 -1 -2
right_child=2 -3 -4
leaf_value=0.16310285748538075 0.03092838224201417 -0.41084699489801602 -0.065246011003965224
leaf_weight=25.828149730131432 614.62944242759374 26.132588720558655 192.3103720244211
leaf_count=26328 67697 17961 42014
internal_value=0 -0.125553 0.00800804
internal_weight=0 51.9607 806.94
internal_count=154000 44289 109711
shrinkage=0.4


Tree=166
num_leaves=4
num_cat=0
split_feature=14 15 7
split_gain=2.80074 2.77533 0.00179053
threshold=1.0000000180025095e-35 4.5000000000000009 0.18837843633797868
decision_type=2 2 2
left_child=1 -1 -2
right_child=2 -3 -4
leaf_value=0.00021199874924538082 -0.44676527092637425 0.5482018629391362 -0.41289233310043488
leaf_weight=844.52910575536873 0.28016091205316973 1.48132830013128 2.2954671368098252
leaf_count=150981 36 72 2911
internal_value=0 0.00117151 -0.416577
internal_weight=0 846.01 2.57563
internal_count=154000 151053 2947
shrinkage=0.4


Tree=167
num_leaves=4
num_cat=0
split_feature=10 0 5
split_gain=2.6989 4.59441 2.89468
threshold=1.0000000180025095e-35 53904.500000000007 1462.5000000000002
decision_type=2 2 2
left_child=2 -2 -1
right_child=1 -3 -4
leaf_value=0.00031129646974137245 0.41143459577300368 -0.47604937071011888 -0.23043593200436746
leaf_weight=832.22829386252749 5.358692933600115 1.1301520367798845 8.7904288469599106
leaf_count=153149 341 62 448
internal_value=0 0.256863 -0.0021005
internal_weight=0 6.48884 841.019
internal_count=154000 403 153597
shrinkage=0.4


Tree=168
num_leaves=4
num_cat=0
split_feature=5 5 0
split_gain=3.01082 13.4252 6.48873
threshold=488.50000000000006 32.500000000000007 417.50000000000006
decision_type=2 2 2
left_child=1 -1 -2
right_child=2 -3 -4
leaf_value=0.0035471102679337403 -1.4340655329116476 -0.24565542496211057 0.076038719953195388
leaf_weight=718.58873774962876 0.45756066404282947 36.337985573989499 90.813841198881391
leaf_count=62303 4 65322 26371
internal_value=0 -0.00844812 0.0684683
internal_weight=0 754.927 91.2714
internal_count=154000 127625 26375
shrinkage=0.4


Tree=169
num_leaves=4
num_cat=0
split_feature=8 4 2
split_gain=2.52294 17.4641 7.80487
threshold=40450000.000000007 1.5000000000000002 11868650.500000002
decision_type=2 2 2
left_child=2 -2 -1
right_child=1 -3 -4
leaf_value=-0.0079227417444984651 -0.11826459649909893 1.1021415332803874 0.12215819461411921
leaf_weight=699.45966985593645 58.422040224927059 1.9383579980349157 82.505487495721809
leaf_count=139125 2358 13 12504
internal_value=0 -0.0790736 0.00580216
internal_weight=0 60.3604 781.965
internal_count=154000 2371 151629
shrinkage=0.4


Tree=170
num_leaves=4
num_cat=0
split_feature=2 5 11
split_gain=3.20945 13.3696 12.7151
threshold=92830.000000000015 1437.5000000000002 0.045792635134282382
decision_type=2 2 2
left_child=1 -1 -2
right_child=2 -3 -4
leaf_value=0.030771862871433117 0.057883904117486056 -1.0269725592842722 -0.080498472744925664
leaf_weight=397.98786617646272 179.90003070468356 1.9211764567944545 259.45516028521547
leaf_count=89311 8379 429 55881
internal_value=0 0.0256904 -0.0238359
internal_weight=0 399.909 439.355
internal_count=154000 89740 64260
shrinkage=0.4


Tree=171
num_leaves=4
num_cat=0
split_feature=4 6 2
split_gain=3.50362 11.2255 9.16106
threshold=2.5000000000000004 16.807825382925301 82710786.500000015
decision_type=2 10 2
left_child=1 -1 -2
right_child=2 -3 -4
leaf_value=-0.0037838594202602468 0.093115666313134185 -0.32951448348930024 -0.23020445497306874
leaf_weight=676.90683906479728 125.87097088448741 17.362312954906315 15.779480950457353
leaf_count=56647 61672 30376 5305
internal_value=0 -0.0119297 0.0570987
internal_weight=0 694.269 141.65
internal_count=154000 87023 66977
shrinkage=0.4


Tree=172
num_leaves=4
num_cat=0
split_feature=6 5 15
split_gain=3.3124 10.7914 3.06827
threshold=28580.079696628887 1380.5000000000002 1.0000000180025095e-35
decision_type=8 2 2
left_child=2 -2 -1
right_child=1 -3 -4
leaf_value=0.020315890999170208 0.32886141995668372 -0.4736440115533162 -0.028803936709954125
leaf_weight=410.28564657565073 13.846908007969661 3.3247665699595919 403.6475780517336
leaf_count=41832 34251 849 77068
internal_value=0 0.173481 -0.00404372
internal_weight=0 17.1717 813.933
internal_count=154000 35100 118900
shrinkage=0.4


Tree=173
num_leaves=4
num_cat=0
split_feature=11 2 0
split_gain=3.05923 11.6334 6.45283
threshold=3.9349242327166012 21974.500000000004 708.00000000000011
decision_type=2 2 2
left_child=1 -1 -2
right_child=2 -3 -4
leaf_value=-0.40341880268317143 -0.14576248661140728 -0.015062999053750803 0.031602862886226143
leaf_weight=12.84926483705078 35.2693884468639 312.28869573137405 472.48877324852805
leaf_count=10009 16799 53128 74064
internal_value=0 -0.0304106 0.0192829
internal_weight=0 325.138 507.758
internal_count=154000 63137 90863
shrinkage=0.4


Tree=174
num_leaves=4
num_cat=0
split_feature=0 0 4
split_gain=2.31349 3.31419 0.000747938
threshold=1.0000000180025095e-35 417.50000000000006 3.5000000000000004
decision_type=2 2 2
left_child=2 -2 -1
right_child=1 -3 -4
leaf_value=-0.41977657057421969 0.11227784154793524 -0.0051240348527492943 -0.44350515659543399
leaf_weight=1.831626581228192 40.467036394530851 780.43566943065298 0.24044135631993402
leaf_count=1360 33726 118909 5
internal_value=0 0.000663382 -0.42253
internal_weight=0 820.903 2.07207
internal_count=154000 152635 1365
shrinkage=0.4


Tree=175
num_leaves=4
num_cat=0
split_feature=10 15 15
split_gain=2.22275 2.5543 2.11475
threshold=1.0000000180025095e-35 1.5000000000000002 1.0000000180025095e-35
decision_type=2 2 2
left_child=2 -2 -1
right_child=1 -3 -4
leaf_value=0.018438057700176209 -0.018393640194304266 0.52774954153318232 -0.022282217530812876
leaf_weight=407.10781319433107 2.7511057681323079 2.7297233391145959 409.1356911270754
leaf_count=55121 311 92 98476
internal_value=0 0.253613 -0.00197266
internal_weight=0 5.48083 816.244
internal_count=154000 403 153597
shrinkage=0.4


Tree=176
num_leaves=4
num_cat=0
split_feature=8 2 2
split_gain=2.24795 13.0769 4.7656
threshold=40450000.000000007 47822263.500000007 11868650.500000002
decision_type=2 2 2
left_child=2 -2 -1
right_child=1 -3 -4
leaf_value=-0.0047436571327294404 0.47097734275888681 -0.13982488745579127 0.10073900060209394
leaf_weight=688.30520724177723 6.2725538204904288 52.951835207228555 76.106413545575037
leaf_count=139125 163 2208 12504
internal_value=0 -0.0751338 0.00575842
internal_weight=0 59.2244 764.412
internal_count=154000 2371 151629
shrinkage=0.4


Tree=177
num_leaves=4
num_cat=0
split_feature=16 4 4
split_gain=2.55928 6.85096 6.36392
threshold=35871.666666666679 19.500000000000004 17.500000000000004
decision_type=2 2 2
left_child=2 -2 -1
right_child=1 -3 -4
leaf_value=0.00092626597451810142 -0.038423349462817384 -0.58528615193799316 0.35861001426856992
leaf_weight=777.6885432492611 27.526179961281063 4.2283863102804835 8.0410702200970245
leaf_count=144185 7382 1890 543
internal_value=0 -0.111243 0.00458676
internal_weight=0 31.7546 785.73
internal_count=154000 9272 144728
shrinkage=0.4


Tree=178
num_leaves=4
num_cat=0
split_feature=2 3 0
split_gain=2.45043 9.79155 8.00314
threshold=92830.000000000015 2.5000000000000004 2983.0000000000005
decision_type=2 2 2
left_child=1 -1 -2
right_child=2 -3 -4
leaf_value=0.035198574079643614 0.18812021312168453 -0.30261392588463221 -0.035401363735661599
leaf_weight=375.1325435696798 27.388000636933157 14.249887591760283 399.18813534349181
